0.14932905358132
0.038192660827137
-0.423643552288038
-0.328431576929696
0.120151903543585
0.0528370434014371
0.343243332701129
-0.018662143252608
0.324039315438009
0.441880794842569
-0.0942270684548604
0.0108805711271261
-0.40190154264248
0.04309513916124
-0.126552837552428
-0.295734677430914
-0.232634743379226
0.035503325264678
-0.431036643410317
0.0491407888095204
-0.211414861444789
-0.485783320195256
0.134737859557771
-0.262102809066723
0.346701135419348
0.00753907881701031
-0.0368702864226942
0.0235376091580207
0.108504220935381
0.217577512515492
-0.0138639272598419
0.0311277356406037
-0.462154514967781
-0.425682514353517
-0.0532004585947309
0.0736266678211861
0.158726132711848
-0.18686060165565
-0.292843495608849
-0.389359516541193
0.16270234602713
0.209520402427884
0.308054672427437
-0.113611539410399
-0.210210833583706
-0.358567139069466
0.206689483669453
0.425480842754339
0.424636092066079
-0.223393651660742
-0.416995898771044
0.292216382775165
0.332337133190641
-0.207806406387321
0.249751335334109
0.149081690611288
0.379884715872411
0.285805860478289
-0.197381602169483
-0.37621435835765
-0.410596539154814
-0.169859474680438
0.330670043268855
-0.37582987468316
-0.0346293108403102
0.359067633077679
0.00729276799975711
-0.477791085253889
-0.368355684988226
0.284171607912803
0.0180408239030318
0.417621982924185
-0.162948434597604
0.448263816411023
0.374432832093638
0.0547835180586958
-0.282900507064607
-0.221197234362551
0.46630393988758
0.245554350793954
0.270468631338902
0.0308928579014238
0.0627185004174257
-0.143363810999487
0.143765941138648
0.162252304879065
0.182298980758743
0.211324801622727
-0.187319555194516
0.288458684090145
0.171115908827974
0.359429299252086
-0.446134290500028
-0.381484335975653
-0.471266667801419
-0.15411968006967
0.351529004454455
0.205138401669966
0.366500083051401
-0.110587427135895
0.0798593455680703
0.198172905785886
0.326345209127586
-0.333610630113648
0.249838714306478
-0.34683758513627
-0.0236729051192542
0.376218470832998
-0.0916181076161478
-0.276627262577902
-0.0272712493172478
0.12495569356812
0.333936047221205
0.0352028965019911
-0.149467918798871
0.05392678466173
0.238626064280244
-0.00202924225166103
-0.0227855431023876
0.284447417511164
-0.267607096789151
0.272048172788361
0.20555717028675
-0.182507867591595
-0.351888673876034
0.146016313693423
0.405336827415831
-0.247300105450237
0.416356557114722
0.0374707896351694
0.192708552278326
-0.0381913783960343
-0.116873156361369
0.073070814098111
-0.306240093203304
-0.409803612791834
0.189795941287064
-0.0856025843338626
0.090422976392819
0.00381179378363759
-0.301637322248309
0.298091673300294
-0.187376249140422
-0.355599335615884
-0.18032679128103
-0.452208780651091
-0.44468883539937
-0.0298816458386532
0.233823304412657
-0.0386572967705441
0.0907951201872211
-0.143401752797688
-0.242529054718315
-0.373566033934469
-0.292753078796062
0.281568065492449
0.459468455110169
0.0382505345135031
-0.443626249987503
-0.395556795846332
-0.24142299561878
-0.274653004264201
0.428750977937794
0.35386136591592
-0.000305350638498917
-0.479684983322827
-0.22971510507705
-0.232594644832126
-0.12019205581966
-0.235925078790448
0.352710243332534
-0.147441508090157
0.399188864997836
0.446678120949349
0.0968071159429898
-0.122108545713439
-0.0196025018244093
0.0809527703235926
0.448420383154183
-0.420620234878108
0.125425107249264
-0.0596147687893321
-0.0030473586707129
-0.0213707011707167
0.438038746312681
-0.157312492801839
-0.284030309586237
-0.2337772648183
-0.123666193656769
-0.110156718991812
-0.401028720088359
-0.32150880329912
-0.137212465974255
-0.00424869558773283
-0.240839824498732
0.450316969106004
0.362246073373945
-0.0555280018986365
0.112617929322951
-0.186154452011487
0.277537287914418
0.257850897942879
-0.385775372437563
-0.0213564503026965
0.10048399196992
-0.243393765055729
-0.0505688701815245
-0.209973589638273
0.00546540483567421
0.316542010991677
-0.192567598548667
-0.105147823592557
0.0494157378534364
0.466317531516255
-0.0259801226252486
0.283919112658502
0.204186483562272
-0.0493913588751732
0.407684370619564
-0.342819217800428
0.29313072113779
0.484179154488392
0.370464366122603
0.459611765337067
-0.309442584389853
0.192314462630437
0.465125296376951
-0.0861617988946276
0.195525386883496
0.120134286615892
0.00688353969781191
-0.452987984026656
0.464746534466174
0.162798520079036
-0.208068508917505
0.347449743740682
-0.168815407826909
-0.466333377333119
0.35595511055731
0.183969483252446
0.380427082502047
0.4033316797706
0.250829055275685
0.0455304394452009
-0.414444523848134
0.177204224310816
0.1012047421853
-0.111308856978237
-0.477350985086962
-0.0326565301277699
-0.227473435833789
-0.0750554099222943
0.0226163780129658
-0.0442460747261734
0.0081351558897239
0.283889796860445
0.373241200308801
-0.3526409247836
-0.20227008274764
0.399811858535362
-0.214003604952676
-0.457115342391166
0.0821913498045914
0.366011850445386
-0.176871343263591
-0.224641319235406
-0.0855433257152559
0.369294950350994
0.180379276488262
0.100695607606497
-0.0322297633175586
0.178980895923461
0.0760515413766675
-0.255743211651427
-0.23069848450207
0.370415500592115
-0.268102245716465
-0.170499501606913
0.349979134754993
-0.000372186299646205
-0.404739401516998
0.0783767194649724
-0.094257314478457
-0.265415008702762
-0.126901466675094
-0.400270273662294
0.00310851576193343
0.0141255477903013
-0.316565850402988
-0.00462644982583333
0.470696649420638
-0.298377628904511
0.218683314401021
0.418595458609434
-0.0919707121355857
0.344963410502546
-0.164167213913901
0.370273671626715
-0.26508873761713
0.295496832159076
-0.231916355539304
0.211762063260891
0.199614792855029
-0.105305606185361
-0.489348867678025
0.0698860646225889
0.323281054402712
-0.203247833423625
-0.306923085283743
0.130374122179351
0.0547568341972233
0.0472010085518316
-0.235899266897734
0.290114058137038
0.303719176116805
0.189800472068013
0.124790672875991
-0.144439483616052
0.0040019180726343
-0.282804753465214
0.260060623587752
0.385615700532197
0.210214514787232
-0.306826357330403
0.126387360238874
-0.227411863334814
0.445169419525839
0.10922936474596
0.309104659974038
-0.0595984346913462
0.0390930260343705
-0.145766958534244
-0.403345695803949
-0.385888784999415
-0.262783307490136
-0.120127442278999
0.367758313177424
-0.467152067086536
-0.276821189527863
0.296086155334211
-0.225494026863
-0.263122634031709
-0.163865034349148
0.0276500634283725
0.415152719815858
-0.0757275123604809
0.404408275181536
0.403036126415037
-0.322334512746365
0.201400186988541
-0.269555849605723
0.470842011793792
-0.120580397882926
-0.438565778958974
-0.446397590578257
-0.122013013372177
-0.484879510951745
0.0139477554283062
0.252356686118595
0.230268714888113
0.112335404522684
-0.282959846167429
-0.0277678771588539
0.248668860361509
-0.405244336670926
-0.297253504662669
-0.047289083110648
-0.316879233916138
0.0550632168935405
-0.0470548984768001
0.313473618247447
0.109021419445669
-0.363085591492608
0.194979171546814
0.427584218672499
0.0585856090539626
0.0545287646360895
-0.277359858356746
-0.246232969960214
-0.289866282313983
-0.159059656440253
-0.454817502864489
-0.0398319003799048
-0.3741630897709
-0.305737933773977
0.0565677641078333
0.460186448407709
-0.415768678269863
-0.45095517887493
0.352728064424516
-0.141860174832924
-0.14145904815182
-0.24690500315126
-0.0162769638562833
-0.299196231156457
-0.4442816139
0.228104807057237
0.0617411504438667
-0.0687224947573963
0.229612017253334
0.452836085138554
0.246109723447837
-0.135531996796216
0.193751512419812
0.370928391773453
0.100253769844845
0.320406409818563
0.163708080282479
-0.429959156118938
-0.0231732575822272
0.304296888982006
0.304822878629146
-0.228941624257603
0.0461332837881901
-0.108820736248831
0.10004285697274
0.229700906754265
-0.14271364979781
0.0708300213711242
0.0291371551497368
-0.278962943494765
-0.124421889605562
-0.368252067554481
0.191597748595667
-0.374423412206872
-0.0394088836388659
-0.126359126339756
0.134839693256936
0.0173708609510493
0.360023643446015
0.297391571397892
0.475362753683831
0.247427618702499
0.00902274806876535
-0.264216452251016
0.0848807425103645
0.146107341522386
0.253904274964002
-0.259680071009996
0.0880577336969431
0.206561872364661
-0.186221642215979
-0.431460660084176
0.0601023138703336
-0.412393891208226
0.0356314563539249
-0.394530450284076
0.19366902777675
-0.404500835629365
0.0747054439457124
-0.198420674947238
-0.123532861444569
0.47060129953855
0.392782853207916
0.0114797514706199
0.0906225365415685
0.116767098827678
0.15167388416549
0.102872683548416
-0.0765295235830692
-0.258347667978717
-0.289860724973328
-0.300143972359562
-0.329468703388144
0.143186215695152
0.315794919718121
-0.431613359054573
0.248574766965739
-0.173775609671929
0.272334652055379
0.414483608519178
0.481249173983236
-0.338708820299294
0.47274119775632
0.307217738466259
0.398004812509418
-0.130212109538441
0.0659254505432282
0.157496864690937
0.0586803387630219
-0.130171653359628
0.162578016479034
0.0506253696516619
0.417607840026341
0.0918767870412377
-0.056794243651739
0.43865841750953
0.347842547265104
0.480302533509441
0.136957228140837
0.463175297578405
0.476280195987642
-0.339592820597994
0.295932836447989
-0.147768070762344
0.00822611752259052
-0.331118988908883
0.339197591016314
0.384293926393887
-0.248049505354788
-0.027032730138328
-0.163688663113397
-0.113814413670877
-0.207852568580569
0.132957214376112
-0.196622231511073
-0.252683375454856
-0.480568392597404
-0.410600512453566
0.109411808743204
-0.261150626566227
-0.434428205423162
0.491361114294241
-0.442364393634775
-0.392138350409896
0.063209736601587
0.13627213515249
-0.276464323573231
0.0515843685106016
-0.260423671195057
0.317542449637826
-0.274454356780362
0.240692898214791
0.164091247007727
0.30732613257952
0.44339468900256
0.31087233647181
-0.175147444616813
0.123562820643391
-0.190313861387101
0.234875479670054
0.0132084116644221
0.157458924433867
-0.0608545676096232
-0.41311076721579
-0.447033721272936
-0.200565191505942
-0.233057260327758
-0.204908164999014
-0.19042079114586
-0.301551736348474
0.479186197689548
0.258478208750717
-0.113223415655731
-0.0894057724575835
0.39518611853203
0.483477602569311
-0.380096620854359
0.238393258695306
0.275849609628576
0.347865283681068
0.424145112795836
-0.205674783002622
0.187461589881342
-0.1036353963959
-0.23062648314546
0.067149885683945
0.199308639920456
-0.0298263027644561
0.174853553111082
-0.0336064011170735
0.387499066108173
-0.123885844120007
0.261490798601344
0.350090429120644
0.206956186531766
-0.11748873741399
0.0493865767843472
0.445674781492335
-0.476156652518298
-0.20314819427284
-0.119463653590828
0.420109122199478
-0.248471360393241
-0.486072033966349
0.318425011733142
-0.0717075907901909
-0.127898092642608
-0.23102842726531
0.403738690384228
0.436324984558735
0.222561597170797
0.0763542714541389
0.320172639191417
-0.057421643319682
0.302691192512725
-0.2710930155477
0.459410543053768
-0.452329852497658
0.29944525915847
-0.0473517525580915
0.0565241088008318
0.309476798500735
0.1035698643536
0.314214941182549
-0.218646842386531
0.105056457712288
-0.487934219539847
0.0193006456954123
0.194015351937363
0.0301479087653833
-0.0571497547646267
-0.364121325545493
0.20121145222073
-0.00799233264724551
-0.0189650624460871
-0.49559218278907
-0.426116085721909
0.173307607544601
0.0581132384170657
0.331646045483056
-0.281909314285904
-0.0402864879316273
0.0317061528824038
0.215606708872827
0.231959106304536
-0.156951364156441
0.0272630837856937
-0.172892463858935
-0.435297707926755
-0.0166683549826013
-0.0838159350723261
0.0134639802707426
-0.298638683247624
0.061239570828811
0.220677639481433
0.057225488525978
-0.180306022660394
-0.0922887820782427
0.230743994922645
-0.267502594254469
-0.0753465547014402
0.333698349926141
0.0567038869924668
-0.11644440568332
0.00892342943025802
0.0933115643858421
0.341286736428187
-0.1499298299729
0.454244463998943
0.280032835008631
-0.315558802051269
-0.20508103515649
-0.0218953679775061
0.459787922071617
-0.255975488625078
-0.383681259416318
-0.215495235940471
0.380638309614603
-0.372742285711888
0.429836364017363
-0.367391033948376
0.173012798307842
-0.0311028917514963
-0.252923668217917
-0.37413837827799
0.417528784512888
0.448112695834212
-0.333435734261928
0.254819434894602
0.409320411775298
0.178960387223205
0.126360441620264
0.429862175054395
-0.160050738557657
-0.0886310639747196
-0.12912122071439
0.395167905506162
-0.354874454953056
-0.280200685103413
-0.358400006037165
-0.0113272147253869
-0.32054580052915
-0.13434482445387
-0.24129087387798
-0.197217390024968
-0.343146373791494
-0.420395238392294
-0.295343176214995
-0.165019279085845
0.123663451144774
-0.199040170252138
-0.0681251471276946
-0.192077210349029
0.297370430074816
-0.329224956214415
0.236078723146756
-0.131319057990782
-0.153468339476383
-0.235196702470737
0.0601775636698608
0.130145719759814
0.172167089168918
0.0797616263553533
-0.458639591710266
-0.381628391800657
0.0503145724735622
-0.150857524724717
-0.355761342160049
0.0516407095842368
0.347107331713982
-0.303555324179077
-0.348673940351396
0.164157617548065
0.457241429245954
-0.0576084593213567
0.389097530589661
-0.186116547250396
-0.277933371766142
0.397768413222198
0.477595093430282
0.400826696815439
0.261064738170809
0.332679213757492
-0.358898468642407
0.137638070638887
-0.242468712306732
-0.172280886236232
-0.352023492675876
-0.299933513320377
0.162457787093591
-0.479850655838319
0.0549903924667195
0.373302268935288
0.131302775012261
0.00708378651836137
0.29195102594942
0.0910070420593276
-0.176398997411083
-0.330152936292976
0.234526417931843
0.264038851401881
0.371174602667545
0.137132436038219
-0.055728316533918
-0.0598169367201239
-0.338861098737651
0.25325046624375
-0.151254937085132
-0.138224898229739
-0.250374665616903
-0.0680315349916358
-0.344209214256783
-0.066904236751538
-0.23273999069385
0.159968717992386
0.353853921416026
0.331086818344935
-0.0549319069697355
-0.0970734257608699
0.331745590335052
-0.272980616660121
-0.282590049125276
0.431225228443874
0.378707781230762
0.365154655605105
0.131896380905941
-0.240554395128539
-0.444918833718677
-0.0286583585888363
0.132720515366016
-0.19325566682174
0.481589546644054
-0.413209675056358
-0.298669798276034
-0.273206576610408
-0.437081242284376
-0.370964263575931
-0.0958167551347722
0.182229989648816
-0.00981686840080338
-0.0152454183569829
0.477197645266593
0.257172669266081
0.44532856928208
-0.267412993017173
0.337312712833332
-0.364128482399195
0.10028306572693
0.458878327317509
0.132772869509727
0.429194359323292
-0.343558571803064
0.407266664814846
-0.227983613650756
0.021198442926165
0.0539000099965914
0.428604311182484
0.246613907339476
0.0687944290370215
0.274722370230656
0.342824727880023
0.20391792927657
0.36817127027392
0.21214527940882
0.421199217069393
-0.0615279389943305
-0.431024223066444
-0.223545416898198
-0.445154263412872
0.134364828355411
0.232648808225414
-0.0507936342928616
0.238176603129836
0.378015791882498
-0.110297202927159
-0.225334936011796
-0.0658225924921966
0.459572256437468
0.146414511864455
-0.455437804429464
0.0118656611255735
0.131539480970604
-0.434555205633942
0.317718879312668
0.174345351053396
-0.331829308576477
-0.427945147309169
0.308931177162113
0.130967527156027
0.162793348593259
-0.407453888439834
-0.122573062949535
0.297824071432726
0.397049067266295
0.108399822731124
0.257274554089016
-0.36339488634799
-0.431046319437619
-0.449599910359282
0.287637010206233
0.26213711014994
0.337429083506818
0.0691791534763554
-0.157265475601394
0.364324559344392
0.00473240745399372
-0.096673060260112
-0.477927942039552
0.379050366709209
-0.203770455427921
-0.365390505175436
0.440615093123622
-0.395246491311024
0.0482562832683876
-0.219965467047849
-0.255081638289961
0.15319824854622
-0.425704385042919
-0.449250736025848
0.257973687092222
-0.133815862433889
-0.235962537866979
0.126668792703243
-0.122694853204144
0.0451825132421434
-0.135502988941662
0.124581320048051
0.322294240148865
-0.199752980267714
0.110854520799789
-0.358718094530435
-0.112479948899875
0.437213726149247
0.348869094391387
-0.2686813887626
0.163016504972101
-0.410237794292188
0.22053249011195
0.417149361496593
-0.317579273434375
0.257996863519872
-0.431929172818467
0.425761620060206
-0.149998181868196
0.0416838808537533
-0.352952858310585
-0.227420869544785
-0.209882764069535
0.122415986374123
-0.128773245194919
-0.380176576879944
-0.445474773222732
-0.487700797918916
-0.235969182527892
-0.0733966807360344
0.0452447047941266
-0.255701859414292
-0.281207673359482
0.264462444059501
0.0216885993812319
0.367197150529226
0.0571718873381105
0.203921962600688
-0.215626383678891
-0.341507624202411
0.230655659872559
0.476362498569906
-0.233694821506089
-0.174673554589965
0.107010873999096
-0.319247983610482
0.409716805316033
-0.351948058918266
0.361453041183583
-0.477659629168683
-0.195523692516249
-0.19145528212252
-0.20673693870724
0.318383589815902
-0.0924482056387162
-0.372273129762562
-0.131259207950924
-0.28490490069105
0.406830343185768
0.0072741463977329
-0.388596121698246
-0.123560558137328
0.196494357524963
-0.0712393235609144
0.166418547688094
-0.0446599554144399
0.364126352399547
0.448946507751051
-0.106084754497264
-0.192708026051619
-0.290026582613036
-0.1446422181809
0.147372510007147
-0.303332009155125
0.300628448030479
-0.336822411441739
-0.45693521130096
0.438729808266615
-0.485882300753515
-0.293112758270589
-0.305073505996174
0.407580691492583
-0.331700778529157
-0.23177547017152
-0.356553338293491
-0.248949904616066
0.403451192663484
-0.129284542986572
-0.129685332888312
-0.0677975668854098
0.00514846948730412
-0.146749504682327
0.278436378602313
0.239325666378985
-0.420291477378613
-0.126878096077437
-0.218805194464423
0.301167715201233
0.13789360532645
-0.344161377075207
-0.207132347640512
0.456639831330776
0.209888427308854
0.0626636220857616
0.290292273627919
0.431000447185823
0.135432389080462
-0.399598683888574
-0.472838181460311
-0.242619599761818
-0.428151754887641
-0.0857294010075347
-0.289540424897786
0.215415249691787
-0.170575497567517
-0.333242307216788
-0.263737180973013
-0.0571251432380474
-0.18249902453513
-0.0659830274417249
0.0345620773565364
-0.00370250691719982
0.0797969023549936
0.451080461302068
0.28197163492039
0.347630363798292
0.0677766793448656
0.398893663330219
-0.362001618856547
-0.0498612855232096
0.358092678043772
-0.283569918877962
-0.192639098620478
0.321011330101511
0.394679982737618
-0.259331037458428
-0.310380746927976
0.065820957525041
-0.041349889841874
-0.316404982142393
0.094268659872675
0.310493189844291
-0.141819735525122
-0.368272557744383
-0.123061288147678
-0.412009948096452
-0.439919988853402
-0.519341781433286
-0.0603320207918737
0.419271585185492
-0.321688762069963
0.327017878154357
0.056117512075808
-0.246810201649295
0.0904488404248512
0.299176206995497
-0.207475788340173
0.273226236361534
0.25241659613877
0.392631838404561
-0.165010246098297
0.239215630384435
0.387904780712621
0.0737496000090573
-0.175410092596101
0.267735250904855
-0.393515522130684
-0.218430855607477
0.374857179831813
-0.403267985785099
0.470535403443082
0.153380316001845
0.500460913038632
-0.363963331913166
0.331869420981527
0.205118233511873
-0.448158315777491
-0.125243398423267
0.0767000271453389
0.207104704823523
0.229886857831653
-0.0409124800806488
-0.0736541170054164
-0.385407850790725
-0.166660203120713
-0.448416582403019
0.260878051560948
-0.427180650238307
-0.299248191373804
-0.437188480127492
0.359684512797903
-0.0200253007090757
0.352251847808503
-0.0364652458737056
0.221790116869369
0.412944820966721
0.408890988540064
0.242996905722778
0.2741137796957
0.0188861102316869
0.546678618141627
0.338115167569638
-0.305035625772266
-0.2751121034437
0.363549529440492
-0.0800304884011811
0.401021154423656
-0.202340935568231
-0.153752924210123
0.461958863430511
0.144333123735639
0.320782503520188
-0.384709805685719
-0.38650239818832
-0.287353381266711
0.433957208847688
-0.288896685785144
0.34472371052553
-0.206864117316069
-0.170485052805674
-0.400664679885289
-0.557931629034161
-0.329109115277098
0.237744747751257
-0.172267238638896
0.0494348388132693
0.38199234355217
-0.078547026253896
-0.172727416305172
0.492843794697387
0.391423842267361
-0.121029132905001
0.179426150582447
-0.386081547550078
0.226174678225696
0.468740667814423
-0.298744289767914
-0.400351023240599
-0.34204405196932
0.32493418062511
-0.258326789536631
-0.139819815369931
0.28082443843854
-0.182712829440599
-0.0449830723025446
0.442824895617817
-0.236472210845567
0.146299817240273
-0.19276874979025
0.37785726955791
0.0997861401193622
-0.36423869602782
0.006482646581322
-0.143022681370438
-0.154831033960972
0.504741872356848
0.253620664885625
0.0408857308506557
-0.525503476739193
-0.1265956986105
0.133185631040519
-0.120488897944714
-0.467447807662861
-0.0535806091908857
-0.501237497134657
-0.167550370923049
-0.28620821708907
-0.449468770361727
-0.183423732339223
-0.160604493190313
0.167344774032074
-0.471499224551015
0.0610246342334501
-0.107883510631638
-0.344854748804098
0.300872160305189
-0.269795899494634
0.268778893018669
-0.330265111199469
-0.209863023016085
-0.163503978799292
-0.376271430511974
-0.318107732953782
-0.136242180228536
-0.225266180739707
0.32876892836017
0.278190527093515
-0.244787773557685
0.168665815754647
0.140117022511452
-0.373840808362335
0.19887965013435
-0.323830287837148
0.361321395551889
-0.243031038851352
0.269018693687547
-0.284134443348169
-0.249970393131587
-0.260538976639024
-0.31367346863142
0.283913607012737
-0.3827632124824
-0.261453859348633
0.386491553240255
-0.206220208321408
-0.0375523811407302
0.143048764224008
-0.308896162147239
-0.256807983129926
-0.041088376098264
0.164175783769094
0.398604651744894
-0.226286964385527
0.0889617851740024
-0.391069512543253
-0.103249052455713
-0.229533366733738
0.242404550376522
-0.448603670577539
-0.276101185263421
-0.0334688602888051
0.386468773198559
-0.0644188198024078
0.0598560346414122
-0.387969087782434
0.370689529475249
0.445421155519931
0.116234278451752
-0.293187861737684
-0.207896474444731
-0.0305966585278987
0.391340430713713
-0.0911824808054635
-0.457151308994822
0.0800577680412285
-0.375942502022679
0.291046126036583
-0.31126910829306
-0.519982075202727
0.398935370991836
-0.238301353664664
0.149879734401679
-0.448992373118437
-0.399541734860892
-0.451378576930184
-0.211259763788337
-0.169859511544448
-0.0206134912295358
0.328412812629775
0.264323917294684
0.0884822887010242
0.0559992468449752
-0.246836028791126
-0.400837166441898
0.125124728677982
0.319429801598376
0.246722482943602
0.262503388090183
0.348807767022059
0.00830743296890036
0.112897892199639
0.439516320595955
0.573803749287839
0.353421468195417
-0.443076670380011
0.354930936969798
0.0594913619801702
-0.209416405026267
0.445256913053688
0.388043213860828
0.186989244204726
0.490390367839349
0.148378247866073
-0.249543636205872
-0.463330980055019
0.243064222526561
0.397920743359407
-0.248405604961264
0.0978579518612206
0.410960995171977
-0.0818814955378027
-0.157380507254095
0.371748907250701
-0.171281095856795
0.2992783268343
0.494558744127802
0.212428007130261
-0.109264078455846
-0.179680252775713
0.331499396747118
-0.0463946171694856
-0.397340547644042
-0.242221292605425
0.053666926730132
-0.309686967588439
-0.26488875884011
0.172696455199816
-0.402327723575131
-0.385207670507395
-0.222864538199893
0.325907869077439
-0.38864365162613
-0.0410101952320873
0.523365564303541
-0.346112029863643
0.00806547347233684
0.486991491846593
-0.435239399792577
-0.544109670870003
0.3131642912436
-0.493142760778571
0.0747669528385274
-0.439467241902544
0.517089050295041
-0.52226162728302
-0.349483299871961
-0.369376580356587
0.126557248752678
-0.37466022247927
-0.353188850075106
-0.46942362260074
-0.436355502966892
0.349683235040403
-0.333572183577594
-0.170723104495808
-0.0239890212751207
0.106425436427846
-0.510659060417515
0.471308027132593
0.202721393027198
-0.36821846129613
0.193879368901553
-0.473931458935563
-0.127611191051484
-0.338471785857152
-0.304109482218306
0.475603964994077
0.404013481246461
-0.428174144858175
-0.309341332419936
0.425355602897971
0.198857734051929
-0.182060221541383
0.102899345909813
0.220756647705222
0.468650047699442
-0.401018288446367
-0.162267403077877
-0.0394087160769143
-0.405597678798293
-0.323463064011781
0.452574892633695
0.394833053955748
-0.455871784251507
-0.36212388568536
0.154542434361918
-0.171581623120298
-0.149492834472544
0.080023138158111
0.273364838476123
0.474608654883959
0.375507443032191
-0.480148792452836
-0.334845453700272
0.252873566092386
-0.0988384512720782
-0.0488653912764783
0.0981941131567819
0.431906802435588
0.186038902198979
-0.231281935505446
-0.233558323524155
0.117122262057325
-0.479571107243041
-0.376389655944492
-0.0835116412832799
0.146554784762763
-0.314211395967061
-0.150793227096137
-0.0449766772483431
-0.0560875156357471
-0.31215510657599
-0.072707086570124
0.436358402131114
0.0932436856846494
-0.404147712657332
0.212785611181267
-0.466353639042839
-0.205837055138397
-0.0861140833231436
0.440802187665402
0.167671506418036
-0.228500659721504
-0.106056517754515
-0.391453868205157
-0.393926003031666
0.0677550459864514
-0.414790295471768
0.267844134354598
-0.10367984827274
-0.0928063996562138
-0.0885704126227248
-0.0184456442990492
0.356374773999308
0.422521876929653
0.312909777628172
-0.0974430885758715
0.441191919066463
0.324203729864647
0.124046270817693
0.408993758887712
-0.443685184926035
0.417267807243783
-0.485815745070747
-0.101116559017804
0.201000230579535
-0.161006577481944
-0.321508500012534
0.142663006215346
0.0535520602491063
0.0933530153527495
-0.173788324741701
-0.139363168558502
-0.101348252210563
0.324850352455217
0.00735784270487898
0.414705287705758
-0.383547779373712
0.303428797751914
-0.41091023403622
0.426852128693501
-0.0034491087109998
-0.187770325096879
0.53881209972021
0.440170681652344
0.440202935970507
0.279887036255286
0.154015632531438
0.445891346206174
0.190568822513326
0.261153230673183
0.352345380147432
-0.372654371506361
0.0854755717810249
0.0862884543399316
0.286322528678067
0.177744304961982
-0.204188602124928
-0.455771599101921
-0.00279527375086041
0.160149675582298
-0.0358197148382328
-0.0194889035069254
-0.239784924106144
0.395412427728133
-0.319920150513915
0.457566853571584
0.485964364502169
0.43355150127545
-0.179404012655837
0.472361877814771
-0.312271567815755
-0.470625789174066
0.308807658581116
0.279432883337701
-0.192184740888911
0.141060787961488
0.46040547515063
-0.503281656233639
-0.13962300149946
0.323263215768443
0.274187273751067
-0.344037667603373
0.346852552641115
0.381283150845737
0.331148949959448
-0.25824960936873
0.368808473011725
0.39223394384401
-0.386806162005854
0.387003281881742
0.188740072779722
-0.376304568040578
-0.13510239057454
-0.00223319502300189
-0.144922513118757
-0.552796254350135
-0.379930548364106
-0.42742513293974
0.332612609352028
0.415479681010356
0.374022811124703
0.122505493117724
0.163559859555634
0.287356445530229
-0.032968326250284
0.382463939634068
-0.101591974630212
0.208191528187255
-0.32766554348698
-0.48256084607037
0.304260472960381
-0.285477854639961
0.111692331382828
0.0776820086578158
0.309298910566623
-0.260692213228304
0.203647420281331
-0.0397522649321359
-0.369894912606456
0.336969422246682
-0.340527088397911
-0.515327413838456
0.375194851443732
2.95830301274148E-05
-0.139304723343861
-0.531092368552261
0.246062473933451
-0.128257885423261
-0.00130507312344916
-0.199428703000313
0.0985853956736387
0.31338556686678
-0.281937473720912
-0.125577889219525
-0.47165657139305
-0.464087163887483
0.0912712013358192
0.493890647474872
-0.186256792451358
0.475874782593635
0.444825578985949
-0.291639852867515
0.293127061207499
-0.328419012659087
-0.349046251754718
-0.145369846908128
0.0996102916585513
0.195616555388134
0.109290192346925
-0.450795274030108
-0.211432809572628
0.245951755506228
-0.504998328598472
0.417384793026908
0.301952104915783
0.278330227601362
0.33230547870643
-0.29973040466604
0.00403519575651828
-0.0922061712761836
-0.467676401740928
-0.585536706052403
-0.227170454999126
0.276778294293731
-0.162668742553781
0.578722457780838
0.405012570194853
-0.327421652715172
0.13118858438697
0.340660133707898
0.190663614533763
0.2884204466976
-0.4497133495236
-0.310808128403289
-0.535565276329039
0.515502647582488
-0.224649495699485
0.284132197919868
-0.0611304039218774
0.407006494324018
-0.0695484932354691
0.453745708482609
0.177164702068079
-0.159569531507774
-0.403457846666249
0.432403785312083
0.228499894707128
-0.284070445123764
-0.0148350280136138
-0.341233546196847
-0.373571078020182
-0.228229646486653
-0.112248153487624
0.306129840542342
0.390539458610489
0.416962534008984
0.35057867314112
0.4156411097404
0.231931984177687
-0.336233714966261
-0.134650028060429
-0.124301119665577
-0.350779414733249
0.351488174529626
-0.0580551088608336
-0.0958418183908103
0.10372709856448
0.387225129218052
0.346451064834631
0.382264904591009
0.0754734281869398
-0.402326931248887
0.353841554918163
0.158484922736241
0.541837119770701
-0.330349343334578
-0.188705437046304
0.532296761865869
0.256940192213825
-0.0158125695250482
-0.263047018963582
0.242716910410073
0.0548011211889187
-0.134218527082817
0.0972528485318255
-0.0078566660211607
-0.219188649894889
-0.37315323420847
-0.115477073313742
-0.364240061846537
-0.448018900345355
-0.242608142373552
-0.387587330787593
-0.16970103624227
-0.0649647252955782
-0.372445936127831
0.367541785623771
0.398343536396648
0.481085514886068
0.0811778031626012
-0.103824220695741
0.25412618667484
-0.04038830954348
0.183599093189104
0.154831750798124
-0.385181280892727
0.0121470677567599
0.301645801960728
0.352536652769385
0.111497132056943
-0.0219381226177839
0.412802785843192
-0.266934190146694
-0.356634936226956
0.328921081876535
0.197253679028849
0.214354414821811
0.181090324849901
-0.359857477167807
0.35519890063461
-0.467334933330943
-0.134222301757686
0.0599645766726881
0.287653925780784
0.213539654581772
-0.290800964013126
-0.476174778737935
0.0877415404071938
-0.207268045470114
0.309096808925317
-0.122054835326541
-0.162048746091211
-0.559193769661773
-0.429066979007658
-0.34248529803544
-0.114215368704674
-0.283349235736752
0.452641439645233
0.29845257662715
0.0677369987940442
0.382746447766219
0.0705500385923072
-0.116985687953118
0.185919905304491
0.0474065813507321
-0.267700734751431
-0.412217215153764
0.394778316474137
-0.0905958407124149
0.160702855338423
-0.00358329160666813
-0.415807802665607
0.334434386269387
0.522871305952971
-0.0437007938040389
0.441856201291527
-0.224063290410357
0.255960683114759
0.367321942306119
-0.155884523713981
-0.531755451864967
0.508361507485536
-0.071432365988268
-0.401452658044601
-0.333349048348763
-0.27325236836131
0.35949781447623
-0.418282147603229
0.394265411028454
0.00991662570535453
0.0680322949402822
0.177982972224715
0.475510419811722
0.16660612585612
-0.453785640063455
0.0420478250654002
-0.446226537870437
0.291931178199964
-0.365341615826749
0.0465767552249632
-0.307637355418588
-0.458086079364581
-0.437605541635584
0.0349151031939225
-0.100546366382118
-0.315102005420697
0.0875085057527825
-0.504033045661732
0.0145372390768259
-0.335518507893876
-0.433563377403986
0.0200461058448808
-0.523019752982425
-0.146375291854551
-0.00829704395426989
0.476024574107449
-0.465820931733383
-0.137894256645494
-0.0210185181606244
-0.0949503670003477
-0.20663778175528
0.453431837684633
0.407523051579735
0.484206026004573
-0.347576733850606
0.228587373540985
-0.297931224108749
-0.44609799283172
0.375971296371122
-0.509419280056789
0.437992321332159
-0.115208510247428
0.0148711116029871
-0.122982303644172
-0.283612504499818
0.355066394271556
0.337767976224281
0.461594007793165
0.100149112131887
0.51863099990537
0.0443606478655652
0.245073854710197
0.135613124781357
0.314103823442166
-0.109283558552824
0.455846697563637
0.270158618009992
0.0213914917304327
-0.4313279180588
-0.521332662643057
-0.115217565977535
0.11265590480973
-0.287341125099805
0.306310971654001
-0.332504699305643
-0.352508935901149
-0.280896593374389
-0.325780135411344
-0.0553395630960668
0.253666783347424
-0.443156371376865
-0.0777224781536996
-0.451234561089
0.086430164184094
-0.22213067674789
0.219376845039775
-0.431695150846583
0.16599736485147
-0.478007222750887
0.0656676763522761
-0.30955428019284
-0.335539253727242
0.165902690983167
0.024529329200298
0.251458905833595
-0.0617824330391448
-0.115619132433498
-0.330203882637534
0.162998317773341
-0.226244721101708
0.545644762827422
0.0841966628123896
-0.448319746990941
0.450994725177078
0.00657957037690582
-0.279950639348093
-0.27589374709778
0.290424133312122
-0.377079191383381
-0.356445796533559
0.182745117417052
0.0691117309786391
-0.103410385917606
0.439130128216576
0.343235168191546
-0.291920236473007
0.111801555467373
-0.528736261409476
-0.0768657761298824
0.114603567797346
0.266387002236585
-0.511078350801853
0.0568382927193208
-0.0576623678171222
0.36135132415523
-0.201492693313326
0.537203183003772
0.280326722670665
-0.551133890144949
0.304218051678522
0.186406470784053
0.460077928506271
0.0892081659559022
-0.266645363328969
0.277142633963822
-0.115752313743265
-0.0614948415315445
-0.36368022564206
0.475400564579949
0.462888296542587
0.0491874850808006
-0.122235788160853
0.117725304599932
0.469069143643858
0.425543528189156
0.0478180509602993
0.356092830563747
0.302264832067623
0.266426206318036
0.124893338172484
0.230019169107145
-0.176527531539126
0.153974835145347
0.494896168919386
-0.083884958275257
0.451354045068182
-0.420435831974543
0.188644135227727
-0.502584736611858
-0.187593607145769
-0.235651597466967
0.0294300630107714
0.232478104243036
-0.261129961032584
-0.135532839581316
0.318313127115213
-0.465735289226814
-0.262108362388762
-0.275125280606844
-0.149248512721681
0.172314323361581
0.0510616524231923
-0.458995679247858
0.0424713922540506
-0.40580186069525
-0.0352007902919351
-0.0497000291592801
0.176038193333961
0.0545485958934541
-0.117205466194348
-0.129188479232424
-0.367018498170369
-0.585959800663461
-0.0918634317820513
0.471214055944944
-0.0889664635536874
-0.301308050029998
-0.000180477602279424
0.379624809917406
0.239236462199743
-0.147436803098026
0.143517545142058
-0.285568250779332
0.0902125692829101
0.0920083502687626
-0.426999156011393
0.0459971699181452
-0.218873480639553
-0.0065433518145373
-0.476595983831607
-0.0916274616415044
0.0213798576169818
-0.0195393814875867
-0.207128057727603
0.352524680048372
-0.23458238888439
-0.139099872072371
-0.336105550794019
0.291616199779811
0.360333344008719
0.0645254255473668
0.0064230037536577
-0.470830921550193
0.20399580772357
0.357628358826643
-0.471509916725752
0.020508802173415
-0.101702539870291
-0.171842290542565
-0.492248057562262
0.0126160604782017
0.128453473470698
-0.0760915981295969
-0.119802602513182
-0.428587104653785
-0.57187541408483
-0.0890370385072111
-0.128586060690467
0.372048915812945
-0.401847488794078
0.331919565023838
-0.420792367289625
-0.442667534325738
-0.0739626742042137
0.40561559140753
0.24072214291076
0.0628621131502971
0.200191534334923
-0.0439943710727425
0.121846145787791
-0.520883421326326
-0.563976082910772
0.297019805762124
0.449303357465479
-0.238145248392974
0.427867602819215
0.164896368908721
-0.0841063826167387
0.150818681403781
0.122103836163691
0.123451481388384
-0.268695647784281
0.375305141700923
0.0607588936425701
-0.0664467927378603
0.363399172380565
-0.335033095154242
-0.342055985584947
-0.363436124950503
0.306090788276645
0.441542139622235
0.397037649289981
-0.11354795025043
0.0741894085697007
-0.559484033606817
-0.121597850689404
-0.160272908479419
0.18435310137243
0.229932166956811
-0.492356359251288
-0.134365446939621
0.256999427376038
0.347754751594795
0.297364361018129
0.472803656226019
0.146544478276565
0.417568442592916
-0.112922587169614
-0.310428869177241
-0.466782080110743
-0.154352580848884
0.400586206367605
0.109046504506428
-0.194761778814731
0.0759247007033917
0.00889189174187827
-0.200942671089067
-0.0888997456554393
0.401109812196335
-0.407378803816662
0.158158697406239
0.00122868514143543
-0.047473733009309
0.0674584363869331
0.0940188033479149
-0.379075682131086
0.125824445907279
-0.392165257071471
0.408662814388853
0.290690560689432
-0.00851560355581204
-0.443088038504951
0.267421305953804
0.0518655809222143
-0.354197155962132
0.269502135306813
-0.0357229471014699
-0.378110331585192
-0.0103063594269209
0.36732248639057
0.534602231168065
0.34993610531232
0.374360596922876
-0.343652557068333
0.0351504968122057
-0.406050380223426
-0.324250377906464
-0.538559356121354
0.416310428103192
-0.179823286099542
-0.334740962449869
0.32644353312332
0.192047573910138
0.0268639977119534
-0.0819335270247734
0.291973858848933
-0.308746303896586
-0.320716953477906
-0.401012707812265
0.40054684026952
0.419711368403189
0.198995590200289
0.0601016567038727
-0.00995754397534092
0.128163914131105
-0.136073191146243
-0.293746082016635
-0.543422945620235
-0.447891358319068
0.37389283995613
-0.394637704921202
-0.445833184430856
0.482246602763681
-0.409915634829633
-0.337903137804284
0.209461450996949
0.198726258476319
-0.144347911995987
-0.413022416700751
0.0752439496914142
0.367306198359526
0.0516748266407809
-0.399365542455904
0.019026821385583
0.0961577028612431
0.0845850173276625
-0.206418597850602
-0.33040496582173
-0.348025208506961
-0.121331672581116
0.0987124631962398
-0.269244689446472
-0.455478046587318
0.153869854487371
0.488325614856531
-0.319240242150485
-0.167456329729284
-0.112702840526175
0.012231503098585
-0.432173858846697
0.449602021595538
-0.345926265324926
0.487805137653009
-0.394205347409283
-0.342692302388971
-0.429035588319614
0.387899281962646
0.161441858134467
-0.162443988887589
0.221316274414455
-0.349479738972788
0.344137734082117
-0.433007701177802
0.0568325258526306
-0.431560055675923
-0.237585480439551
-0.0720464632473916
0.460529119366305
0.361779199850323
0.442002172915034
-0.546680037853155
0.439152221475818
0.31454787262399
0.259632847327446
-0.286095551737509
0.531441462870389
-0.423453521219394
-0.266680608738615
-0.475877516574097
0.476490418850421
-0.00934211926068665
-0.180014324952332
0.284209984604396
-0.51983372030912
0.148224735968146
0.133866828465256
0.0689174813688344
-0.444311343371126
-0.226014111740311
0.0726681238657459
0.235442768294103
0.206024790904038
0.233792441383572
-0.143545492525615
-0.36673913671612
0.314189449370002
-0.445746252474732
-0.0751136918939273
0.147322847208379
0.140405356057271
0.169920469161145
-0.192106422938389
0.0816768083547561
0.110483015660763
-0.339011716174677
0.421885654993778
-0.0974430370988153
-0.231798701982808
0.439104161274111
-0.278639735920691
0.425609553178564
0.233475839894189
0.0728082136580874
-0.0591395796303354
-0.222503540486143
0.390594458407878
-0.540175888571632
-0.497305207454665
0.46822194388041
0.0168697591248334
0.247610581940313
-0.0621411898229428
0.230179739578935
-0.163207632437032
-0.232055164677227
-0.302149145980504
-0.376936944285244
-0.128107996052057
0.0491272257688325
-0.0204784024040704
0.383711299562563
0.192796278815079
0.148636635878824
-0.088739674273936
-0.27951569543548
-0.401418553897429
0.167992249508199
-0.282550845967325
0.404579694220434
0.143062309089229
-0.212439748943816
-0.155893492973947
-0.46244121048043
-0.507247451523493
0.074426324108177
-0.422044766898392
-0.297564403687837
-0.14387768372404
-0.372744184964566
-0.175155849622575
0.266110555616799
-0.394386165722205
0.0379317566376826
-0.424998806697016
0.453947937287318
-0.207656289505896
0.118197319672708
-0.314672621113343
-0.0763876291148354
0.414015652659097
0.225726706542042
0.431964273721332
0.156601788368732
0.0160888109778249
-0.112724076073594
-0.219438878863545
0.509905230268797
-0.437969095568997
-0.364406087192435
-0.281758576779265
-0.376273810307766
0.29996159502074
-0.473850554057528
-0.279935836612855
-0.211239913261729
-0.176973538593897
-0.157131551068851
0.150226320212645
0.193236682255048
-0.388761958512058
-0.478524561888492
0.313307566559469
-0.193192392520147
-0.226037962566269
0.131924461745374
0.182517343230449
-0.41770141501997
0.0100817052989941
0.0156121460998181
0.475337808197462
-0.094312519509503
-0.09679444971456
0.22514357929244
-0.440667074058332
0.32224391618881
-0.0826942340538063
0.257439959757741
0.0576359568235851
0.0358228958084715
-0.305989353513597
-0.510907802186098
-0.447349981005034
-0.367823999659452
0.470121150557899
-0.398596605216691
0.531207891873001
-0.369846268391897
-0.289399508399208
0.324784112585631
0.0508003336884714
0.392225702665295
0.515458142938216
-0.10901481901781
-0.275714249368791
0.304881065286164
0.498104298963605
0.0484882239014557
-0.0575771979163018
0.306967344374498
0.107229977404683
-0.381856931623133
-0.107639873936712
0.095814193563048
-0.277454670122298
0.241485234370793
0.14278922894557
-0.519815658962818
0.386567931875163
-0.0314200230568245
0.437234606730772
0.121167937213281
0.313065534264652
-0.481500616253084
0.0545208556402147
-0.338060430120301
0.392377388922323
0.082477174787325
-0.0982695668908664
-0.414199488292371
0.182159127801691
0.109986617318917
0.417223340194187
0.260346497631807
0.385946611445046
-0.487247665079602
-0.0460222375187422
-0.421693258128207
0.0628694208884852
-0.170315575013975
0.406659429611031
0.294761772659086
-0.117485630765663
0.167409047851975
0.483274998978009
-0.355869599385862
0.163841197561147
0.0079865163123927
0.354329857510008
-0.345212406254258
0.0295940204431551
0.467434945289941
-0.347993403078701
0.32319279562555
0.451840212863823
0.368662810221148
-0.379940141179286
0.416215011216742
0.412496143592725
-0.371933378922352
0.309807248071447
-0.19429793945546
-0.290218234938165
-0.247087685884218
-0.295630650475401
-0.447492822615564
-0.236746695838564
0.205800837904218
0.129454339339868
-0.227467205742077
-0.158044047587216
0.123240604380098
-0.150026254162568
0.126843007946086
-0.00934691126223713
-0.435147632162007
-0.183767202364167
-0.443427846322441
-0.405580115693943
-0.0244953044644938
0.0819503587174352
-0.0594875898888766
0.166672464032906
-0.184625367355362
0.125148076788008
0.139781254833245
0.0257204821162684
-0.356200721162928
0.214609976137977
0.460155546916784
0.453793584228891
0.107638542991691
-0.423982743207419
-0.00990200929403225
-0.0749211043315208
-0.0079806283014066
0.12772136291681
-0.477553310164847
0.0219006779607765
0.491868928352316
0.28681437596215
0.366156086531651
0.272251319219092
0.121795014267873
0.223280303358777
0.311591949733772
0.00651612182176936
-0.0663902114628912
-0.239575161750744
0.302096846172336
0.100231693636662
0.481173172135611
0.232424611581869
-0.0228565768763132
0.122362578622464
-0.226760390360472
0.218798694493776
0.445614767403239
0.0419773423155471
-0.0186031110233422
-0.0289736818377681
-0.34168184439899
0.395714328735624
0.251299682477542
-0.273732059090269
0.311721985837119
0.0920230014269083
0.43831920546855
-0.40154286491648
-0.464174865011329
-0.00212762921057324
-0.292937104732079
-0.0291040220737061
-0.331937281547778
0.0937986594956378
0.12313102974296
0.224994608493946
-0.408886513357833
-0.0024872641932218
0.394395734041031
-0.307822826864911
-0.518137656923643
0.32446841023061
0.33163128807939
-0.0833314819456897
0.555396622422166
0.302756604512902
0.0223378766580879
0.440263365650195
-0.434116735018908
0.356388693320487
0.212730488291032
0.0385020126276137
-0.382021697107174
-0.0649808567256257
0.199089760524805
0.388583403464142
-0.530475297364674
-0.191590836911211
-0.514972541281403
-0.227712876022756
0.00592448589198618
-0.258154593077214
-0.231236924659788
-0.144125885103608
-0.172161655514141
-0.062353296142045
0.0926707858013804
0.441639077899772
0.4157221102933
0.108893946086902
0.1596543942753
-0.0928573330680549
0.230969074545695
-0.306148452261927
0.031034770976502
-0.263938598953794
-0.497236746929461
-0.246076006316929
-0.259004639956399
-0.592872042252099
0.493326693781124
-0.437798370342725
-0.395484470413058
-0.233849386804022
0.201250794245629
0.223451958173731
-0.0982486721644869
0.150695823232221
0.31273638045268
0.151562057029047
0.178315436773079
0.210681617505052
-0.0866079308787814
0.177552802551879
0.118819475437385
0.149160038562203
0.136185810193775
0.0322635769352591
-0.4977059564222
0.0314610585511196
-0.371701420742656
0.139025005920589
0.424194973205276
0.0212267054587233
-0.39510081513955
-0.259676217958618
0.223885406065538
0.329037657760902
0.465086873879917
0.0208308744240318
0.32881948857777
0.122305828382577
-0.361335390612664
-0.522556999816191
-0.297809287731258
-0.00189191856001574
-0.291295556113706
0.448679364046389
0.0807611067359379
0.157166390955053
-0.403231151618619
0.370421308892497
-0.453683760216657
-0.171007731448927
0.356411613882491
0.388603015629737
-0.480961626267489
-0.410133993278524
0.151883473679633
0.291873368696636
0.166569154001739
-0.00104343468810664
-0.205818304089666
0.28995073064458
0.374370686947115
-0.221851950558882
-0.440099975993927
-0.00242534553574309
-0.428513000580265
0.0171149665075298
0.421041498020898
-0.0162530819005611
0.248742183491216
-0.146764018607883
0.232323024415731
-0.537358947077433
0.138078210096605
-0.126025021523767
-0.109543954995
-0.467297455731798
0.0133077719649743
0.123575097324108
0.362443486714869
-0.083826749346991
0.00745855635164026
-0.208539367432154
0.169971489340049
0.153485350247558
0.229120543442809
-0.227878574005289
-0.223418245738084
0.17102417219377
-0.276283018911535
-0.269052088345794
0.266983995267909
-0.217946372849027
-0.12083626896472
-0.202112192909318
-0.32632660184473
0.371151046749923
0.00508726974180305
0.126829732988493
0.405022720967793
-0.391398135341071
0.142997662456459
0.158559672177803
-0.310624774344021
0.109540587352698
0.00819713980803004
0.27793330445817
-0.179571371604985
0.0813386545514845
0.140439715059039
0.0304543474313912
-0.295637781625968
-0.517178428304472
0.194786155268399
0.444399983126677
-0.167857703354625
-0.0110003125296827
0.166595310876428
-0.186511592754906
0.311881624200543
0.361254033473577
-0.19183651779537
-0.321426574818933
-0.173925794872597
0.0677401449960086
0.151250484275882
-0.0895220224366599
0.150378703790377
-0.214400776511216
-0.264098019527381
-0.0372965812432442
0.0995681679657947
0.286680255021938
0.305629490666056
0.191742363864199
0.192739701075705
0.364138200386733
-0.313506443000137
-0.404243782434323
-0.294734719388609
0.519545136501131
0.520282674095897
0.0934535190071652
-0.401877608937663
0.114693166441613
0.453316794736278
0.230673863922915
0.113677545476935
0.00854165180895083
-0.499166522782977
0.119978107494204
-0.262773059698168
-0.403405164896672
0.386914535304967
-0.42543415383994
0.370717537072981
-0.110596165584411
-0.257000711883666
0.0326983037664008
-0.49057531233887
-0.49025826456105
-0.446743359525146
-0.392102535585648
-0.242368139940577
-0.376444960367413
0.501479988188729
-0.0207096436294549
-0.284890098436383
-0.434646354917552
-0.332269091363649
-0.00790301621311155
-0.136256881631475
0.119152630966254
-0.325324073767979
0.367054695707216
0.429584758854498
0.127238616430794
-0.375482801492689
0.131463045926851
0.0411562126104343
0.334264185008651
0.367977237685343
-0.295456324584845
-0.291074892182693
0.0483404337852952
-0.356832068866637
-0.0719062783930128
0.337435962885088
0.125047597129918
0.236896098071194
-0.285887784120787
0.0811555371781905
0.0602563684208081
-0.485184759287134
-0.39942717305474
0.370478943597737
0.486653610459917
-0.247633365651717
0.437386818253433
0.189376514528333
0.0397951983554557
0.0806234767515745
-0.0359029992862548
-0.233829657782412
0.0786832413663094
-0.331824012930471
0.199003864241984
0.48436415208878
-0.440833058021108
-0.27074244455628
-0.21064799313306
-0.194875252954234
0.187920906255441
-0.452654193687724
-0.240685823738745
-0.287028196216241
0.420149069050865
0.303296229112584
0.265623534270617
0.359256806851971
-0.0159591017728989
0.0430361306289367
0.155268830113701
-0.274207093779787
0.349021576743777
0.487545839540237
0.370053192878167
0.0100848664725471
-0.517422164297312
-0.45498904037642
0.503035661950528
-0.216120246731195
-0.248993138638727
0.498766477089427
-0.442479022167457
-0.177663913809067
-0.193933814898775
0.501392121510357
0.0530953256301305
-0.0456541980999109
0.018231351687554
0.00346485646594692
0.351502399354176
-0.0267450735810609
4.85868071567392E-05
0.47459340732817
0.299921691797457
-0.0975753236658727
0.330987881983384
0.450477143802495
0.359262934760939
-0.412588941737688
0.0513985971643642
0.487076009071695
-0.385975447319996
0.400281215075539
0.344093428390645
-0.338282099813337
-0.177641398686188
0.143159465213338
-0.139901838647374
-0.416739037245456
0.401990875581349
-0.460355816399182
-0.211877670262093
-0.437567803578842
-0.528173828853595
0.255499169777988
0.424722028482141
0.358728439903108
0.313550451424005
-0.520680596957642
-0.337865212993242
-0.243000975530601
-0.0903150246230981
-0.44915753678344
0.266658809922
-0.405776751911367
0.300737920049765
0.46876169616579
-0.397833893768891
-0.128293504616838
0.257363949185476
-0.414561604258059
-0.374870016201083
0.326652913553274
0.168332345059424
-0.162789885944196
0.293333700456261
-0.277292836646794
-0.11769564295676
-0.432984606545812
0.0977051684717808
0.481928517459293
-0.338812746506648
-0.162489883958019
0.0177819852038708
0.201813350747602
-0.244387365979933
-0.128111208978826
0.54698455611389
-0.514901378052345
0.0513749767117106
0.386825122276494
-0.431502832795121
0.301046689894053
0.486095965171463
-0.132624638873652
0.00428035976491626
-0.366326871769264
-0.287049384583338
0.310233282826068
-0.0744148524769299
-0.0864313056358684
-0.0342638007435886
0.394860430650903
-0.115317322790607
0.377161442524177
0.342791818089192
-0.136697345854624
-0.18956545916811
0.210685505319076
0.368912680414227
0.273204365910296
0.02572277920814
0.158834116206444
-0.151716654261664
-0.350048165676633
-0.366032622223224
-0.525798445435
-0.0475525163920103
-0.534190918449601
0.429659905955976
-0.165298585767931
0.49080060495518
-0.417412187560997
0.39430981948114
0.303743918497345
0.478163846228869
-0.257029592178817
0.418056147523165
-0.15459869775584
0.257267169089664
0.235578161633243
0.413012665205629
-0.0106091089986429
0.207977520683571
-0.280140636237961
-0.0687843067542899
-0.323468413742425
0.508717366975336
0.195578403552093
0.300735768220052
0.299879385388284
-0.389048250969596
-0.253470162809096
-0.35913789052442
0.19775782308744
-0.242182419996116
-0.0360050091419919
0.0234773055686676
0.292339731439789
-0.34779328977251
0.0865722907006403
0.0986902307144928
-0.349700389850588
0.309010542409696
-0.519066733256648
-0.143784609433212
-0.211978182018575
-0.431551275013835
0.0130884845209342
0.3177791089153
0.169924772984695
0.0262036902037181
-0.485651998065361
0.525824127899175
-0.307744201844599
0.264881888030709
-0.532093008606168
0.506062084347408
-0.336702222105109
0.24440081342671
-0.489424406696
-0.470781166077648
0.161082368357969
-0.394010494924618
-0.330664117382817
-0.20251788633281
0.159670580684557
-0.512158731956017
-0.40116588308273
-0.0504006366431596
0.065389423547181
0.281025652965634
-0.31508421462584
-0.242942906205705
-0.261787419603216
-0.447604193872173
0.313983605448076
0.230163198846608
0.139127002322407
0.273596277857751
-0.316780069841041
-0.325422282602197
-0.0810699808505301
0.441060386939743
-0.335879501922336
-0.314892324436236
-0.507550131595325
-0.196509415655061
0.352421949526657
0.512228723009347
-0.28294052830595
-0.0940828665053129
-0.23684252550744
-0.512562984464994
-0.470784442147134
-0.0407528158210207
0.491483845017166
0.488597073972041
0.193236724188554
0.256030500253278
0.276187527870133
-0.128317850533658
0.373351192893331
-0.386953470605518
-0.321028752064524
0.309885559241428
-0.0953383518604081
0.308953918110374
0.337038874200826
-0.438859424825208
0.511612777904048
-0.236101410129228
-0.225396432020944
-0.186419146738403
0.102727274934699
0.420995344055525
0.172969402237279
0.293480456102014
0.479152293937321
0.420011803935645
-0.125784849129669
-0.0826793186171342
-0.289711546048542
-0.335199609640463
-0.359490959377578
-0.408799560516976
-0.0650108980288752
-0.359005982617146
-0.355780491149713
0.198405996495327
-0.394486285625744
0.396667685570731
-0.538533023265017
-0.527472384787301
-0.440639350847729
0.388391317799441
-0.293040160004347
-0.269471708951788
0.174044920613124
-0.0635009107228586
0.332554175369743
-0.252478647219376
0.018139579893854
0.194457408184269
0.415522829925407
0.521075855069479
-0.344307650994213
-0.480248143138998
-0.0807716923422837
-0.322668048287881
0.354756553598962
-0.234301575125465
-0.463837956912716
0.333460680461033
-0.185692393889316
-0.228327965761403
-0.424042805791546
0.282320299437842
0.381999538966521
-0.369926846765194
-0.222797107364649
-0.318452152491841
0.212342760824257
-0.436298759824157
-0.505303201029703
-0.489750355209101
-0.134535463823684
-0.266927371099045
-0.346438248396043
0.265894882358454
0.126592223264471
-0.143249738655057
-0.477825634045453
-0.0301355725618234
0.4974103215997
-0.462319575424262
0.316503686355269
-0.0864209235802218
-0.33433225002287
-0.296780276121842
0.504994897703479
-0.0387502960346558
0.128507055899496
0.389495479575552
0.399795838406346
0.430305418255594
0.268267797491937
-0.295141603693662
0.0923410166183877
0.204740028389361
0.229281666657297
-0.0123023215271374
-0.103809361023626
0.0857624776317513
-0.439508958556566
0.225928264817136
0.0873567914692019
-0.138961552944812
0.258543318031079
0.311716264180007
0.216639812991524
0.353031200222488
0.29505826425807
0.225318149963892
-0.020914803920094
-0.079181193657753
-0.366104101129915
-0.0225217504627004
0.281034141217469
-0.331543202293482
-0.125549291487192
0.227105992764391
0.030910043187511
0.108117989014403
-0.42825899815104
0.244466175498815
0.130552037034673
0.268691499163352
-0.260447087526574
-0.360869356451318
-0.203235581603328
-0.425123387115868
0.0753142036474067
0.00590564864380686
-0.408965882316985
-0.290376238881774
0.395228021303223
-0.000655462829707441
-0.165515179293832
-0.162669125867055
0.0199056827785342
0.00247555888309201
0.0945756368852849
-0.246597341460463
0.0649482335029421
-0.437652018933521
0.247615410400756
0.304534462595914
-0.158038582885613
-0.110165466503734
0.195367143419592
-0.148605388030304
-0.130648794035309
-0.172450299935179
-0.262037593741774
0.44805320382386
0.375943849452445
0.367594905750416
-0.0284324474819601
-0.107655797421942
-0.334882276777962
0.242991524640711
-0.319978083513438
0.0237716152971363
0.0778994869666718
0.0523389057813295
-0.321252904291289
-0.168341324066331
0.212108467610182
-0.315272442924574
0.103939978820887
0.0626110860081266
-0.443093011964369
-0.0186148045003988
0.230632074941575
-0.5522713335935
-0.459283778844343
-0.301550958391851
-0.534603562018336
-0.47079009522055
-0.450370830941274
0.22874943993578
-0.15221067563753
0.271267165473444
-0.141075431386805
0.504655007323814
0.277864914484986
-0.327282153219273
-0.329431783032039
-0.437811729639062
-0.0980687952250576
-0.439655811800458
-0.560291760093376
-0.489387343899936
-0.256071812731112
0.331239767056356
-0.259944460448174
-0.394514460762019
0.243106962675123
-0.451455565235391
0.296588456284363
-0.187180478894885
-0.486167553670074
-0.455884698741641
0.358186045051849
-0.463149413210927
-0.287306410678292
0.296808427466716
0.151521005238632
-0.282428499707682
0.303237207654876
0.087476640149598
0.303968200984965
-0.0216084989507684
-0.243673943358318
-0.157278346683855
-0.0357358370124513
-0.0127190835660283
-0.267070532380778
0.13698141163356
0.341132172270612
0.432224757904141
-0.432360173624107
0.20172877876138
0.340494053914956
-0.0674136229599386
0.163082715853634
-0.402750129011282
-0.181098997076514
0.313982026000324
0.276548737469789
-0.51552125801351
0.00905435408042491
0.484836697386696
-0.330872614404887
0.14228536235115
0.134980965685005
-0.260929607387374
0.384805196662473
-0.267394164676714
0.229822331468712
0.421124854243806
0.0427566658275481
0.477253285693727
-0.223249789364963
0.278247149359596
-0.224348703838203
0.019004751994854
0.288853297161513
0.274559407540259
-0.0977387856990679
0.251623776792751
0.354714463611897
-0.489925829409742
-0.234604149235782
0.310204196745337
-0.19202141055468
-0.130048716684026
-0.349420564297759
-0.11207130347291
-0.094960575274719
-0.337224293677953
-0.045202198217524
0.348002337305377
-0.00832886369138662
0.324895947653892
-0.448163532738798
0.351386118040684
-0.17033137168333
0.0232892135085062
0.0615804763149046
-0.344498245579028
0.0759958141728359
0.403724971716125
0.305150432644246
0.331917615696765
-0.130058315272885
-0.32708885079158
-0.129241989318843
-0.303587319665473
-0.28426669132845
-0.439303785422746
-0.250931492149282
0.033661875057906
0.0117585573165902
0.544596974739165
-0.430957408750715
-0.0446521681251044
0.240273668502768
-0.20960979822184
-0.165786661300433
-0.191053544915637
-0.498768571720827
0.037596249535029
0.370527321856601
0.124444456127928
-0.132569900565478
0.125764804032206
-0.108672216723909
0.0030563302057446
0.124874036784727
-0.133228138208036
-0.259283939842356
-0.30980790471619
-0.377623193275787
-0.315034947317232
-0.272489454756927
-0.514927989043802
-0.248555802910047
-0.151373126433864
-0.00550185114465459
-0.330028349008467
-0.461285933591206
-0.46448777425418
-0.39957098269663
-0.0833996772947181
0.36718305374285
0.495672873028843
-0.122316022550201
0.0164918138493285
0.158481057154082
0.0209666270675602
-0.338045518739734
-0.387634466192881
-0.268768771632584
-0.189431684958352
-0.308300173462538
-0.420031750539222
-0.409522761289442
-0.369908935421028
-0.113398265580874
0.172911217638145
0.209046430574077
0.443532191715128
-0.00156766489483137
0.387249700277867
0.376845772321147
-0.425303409641459
-0.171990974143208
-0.258220229841233
0.236742492206577
-0.376427449064996
-0.218740315410533
-0.191215854620608
0.354500859056893
-0.298343191618456
-0.302727967275399
0.406924661682018
-0.140133290132668
0.0237376863817901
0.325121950207801
-0.0604133913322947
-0.20918008717784
0.454727620426382
0.267597144934532
-0.355927736184012
-0.223856598071502
-0.419659088568607
0.518313413810115
0.372419059598933
-0.475318470878237
-0.411826502941111
0.472972002333078
-0.434068981346256
0.401590974942416
0.229356950452068
-0.096512608191696
-0.349773816391158
0.0859572649699511
-0.231904884555397
-0.0316193242850165
0.20126810165211
0.0902723776512346
-0.331154750580019
0.189166740970462
0.0850396208558092
-0.328098619406189
0.261592554792077
-0.184090194196245
0.450884015896944
-0.444779787775577
-0.299120929399355
0.154160568038234
0.00531521164843744
-0.17160606361753
0.48654123784683
-0.0674086701937055
0.303455061668511
-0.406161287513169
-0.24097815834807
0.0455839321090513
0.238389330168515
-0.386738215697755
-0.00991753196902299
-0.361509037844836
0.0729296621968292
-0.414836507872604
-0.226499979606983
-0.183997647459105
-0.323514852389537
0.36813973492092
-0.425195531504015
-0.251405588584061
-0.507954934523484
-0.525463257180292
-0.452000307553529
0.272396908869284
-0.321995270833058
-0.332088861191958
-0.260479977809402
0.531107100325865
-0.0829701182647794
0.298855372684454
-0.514263556371129
0.256259506520489
0.37198645561739
-0.1624636997252
-0.109410625396389
0.161418063896936
0.497754741535387
-0.27471622667634
0.156593404128727
-0.52207374226298
-0.273368901297012
0.154355511848714
0.130258800291753
0.123817121797582
-0.361862227093996
-0.550674239514618
-0.458920308522347
-0.0923066962569556
0.326012361510976
0.00629685065240039
-0.301874213901056
-0.363359282742648
-0.492232506228345
0.363106752830971
0.210703820520315
0.0538909654098014
-0.299554200735002
-0.382765537141596
-0.185577692772432
0.052609172168766
0.428984253180312
-0.202836975725124
-0.338500514804433
0.512322425739242
-0.450550275934653
0.175280454402984
-0.174264612506079
-0.20748551609538
0.254694969061821
0.182362989000226
-0.103441858824172
0.383046756966986
-0.228515388499746
-0.489096848807633
-0.424912667476867
-0.0930330294217355
-0.0917505811230188
-0.0273966718856395
0.0799063391470533
-0.355400124906899
-0.310094073718226
0.25804121589674
-0.396754808243258
0.490194257025323
0.159412196667482
0.294043343668503
0.295059346304434
0.442229024636961
0.202080350726972
0.407413311401019
-0.145658763337134
0.279464437025905
0.479785187883255
-0.498060205085579
-0.372011439194013
0.496242496267669
0.0515476824087861
0.191196427978645
-0.00540230414545822
0.0235358367513838
0.185791048791628
0.305241169411926
0.0920352353056104
-0.290221594921825
-0.467198677859527
-0.256005817391289
0.437779079238124
0.411574183479606
0.337666137410669
-0.133884015937047
-0.279681544543841
0.290995788788038
-0.0187786351533382
-0.268550196994105
-0.0778176200134465
-0.409636083670369
-0.24378529363687
-0.2816704880758
-0.243523242650754
-0.294883188007179
0.449596602452426
-0.049235134024029
0.00492705701219825
0.410349858983126
-0.266474164811001
0.0207291784472372
0.452303360072912
-0.332361037506559
0.44225062207817
-0.351996818560513
0.263873236533495
0.130706787684587
0.376728835895519
-0.411180261143104
-0.12904121164463
-0.202328855297949
-0.438831638533228
0.31072873656281
0.37945518565093
-0.167949988053449
0.400655330185016
0.297532129734954
-0.494163307577147
-0.129626390833936
0.248104999565843
-0.0213947184214456
-0.13653752150913
0.279205376345739
-0.00323170088055804
0.454153785211746
0.172759257089871
-0.134480661042107
-0.163608065676102
-0.132604035967033
-0.0139610145997915
-0.197255487444138
-0.160973690612594
0.255524105268796
0.385702901368973
0.05251848180742
-0.151745362678582
0.185275733738589
0.408172633362561
0.248448500888729
0.0120740096597288
0.00445401436149349
-0.542787373185072
-0.0681016863308819
0.270761060302313
-0.300742663640764
-0.410555278803214
-0.156822716357376
-0.216438003315995
0.350626159218472
-0.143956407633237
-0.276053757761382
-0.136446554963573
-0.442914975539991
-0.274281011473866
0.177563647941862
-0.269732916779301
-0.305177082592208
0.22665636850347
-0.438645668363417
-0.106003695512501
-0.0361947243795473
-0.288492764596814
-0.0321295600483529
0.023154280978442
-0.363208532944077
0.513393054079294
-0.256364966253373
0.343246268841608
-0.131550848700423
-0.470918869055106
-0.350909372796364
0.319353881244216
-0.206390146092786
0.41405298788248
-0.338862329268126
0.0662353281126492
0.46778634103535
-0.531081266879257
-0.126720978456941
0.274881743115572
-0.134179137999846
-0.515694284716806
-0.0569378358418996
-0.571572118049271
-0.178162481237043
0.359789412028256
-0.294723535610948
0.0843772082945727
-0.234088855460273
-0.0995638992919995
-0.42873956634475
-0.489213309692609
0.397336105001735
-0.226742798587148
-0.535001472602988
-0.289121556180012
-0.0680472586947138
0.343419800378246
0.0360562380125192
-0.25428768078561
0.278631284523366
-0.0859516386843098
0.494338635353801
0.374995386039554
-0.379793631781071
-0.172649471349012
-0.512178635937097
-0.299844289444312
-0.535945758947703
-0.331757479544873
-0.315896491657721
-0.344998400158398
-0.23566317431983
-0.298276767025269
-0.41591713007504
0.0295090671109081
0.230364420656598
-0.0720520329348429
-0.234173179951203
-0.306287005184143
0.228018294718011
0.215073219855656
0.140435217247393
0.41845149687857
0.38999471455305
-0.313602763696615
0.48539986013638
0.452911330216227
0.365267118845381
0.52247357727648
-0.442666467798574
-0.438333605244229
-0.0383641304945419
-0.3422678473104
-0.436713476298769
0.365722594834276
-0.442997408954481
0.087204282266002
0.353524429960218
-0.435591627307709
0.446977567398111
0.426809756721022
0.0385742568277996
-0.485447680356072
-0.370142638714822
0.474582842285947
0.167070987660348
0.104566696318075
-0.251269851838399
-0.00333288744847794
-0.10658434745231
0.418704389621007
0.138652003455279
-0.219810890184808
-0.0643950202500186
-0.524968023583239
0.345355403262854
-0.487405355729354
0.394638717953728
0.508041708178778
-0.0900753679910782
-0.431715668871663
-0.0876739270679935
-0.488074999758092
-0.333601082674057
-0.327517135756468
0.246537827307842
-0.361749432804657
-0.320371443561526
-0.226000037878253
-0.111675146555019
-0.406429662064354
0.125032933121271
-0.356247899741949
-0.183543497505313
0.252856410591332
-0.263242465076645
0.0443430993542408
0.310475733947457
-0.541716917258285
-0.0675384440205555
-0.0832788412833066
0.268599374126093
-0.213136628686778
0.032130087001716
-0.46597860098342
-0.0112049577402884
-0.380152909970963
0.168065245910403
-0.503808102555324
-0.555088197134389
-0.515069891279877
0.247538606814122
0.41599410532778
0.205156047732208
0.284554824181419
0.0702297701284891
-0.0627256747508415
0.389248026453912
0.520011283639015
-0.212649117134877
-0.0398606484643538
-0.0134926855854787
0.524690862015111
-0.334271222893443
-0.241723890491884
-0.148138111863045
-0.0607939761974224
-0.505767067664223
0.131175951302893
0.307217736286104
-0.298582166640888
-0.21717169699457
0.37568824149644
-0.0100668429278745
0.50584935626248
-0.115983201421469
-0.344334190556941
0.0377180862619582
-0.307986160909938
0.247346943135566
0.0249021783422428
0.0406411038262217
-0.39622230462703
-0.243386753073085
-0.151682989613615
-0.126225753471349
0.283747855441417
-0.016921615320588
-0.0287066188592241
-0.291215019735729
0.210346353046972
0.225913938277653
0.320537257138392
0.240507548756358
0.409405448400115
0.363507464010409
0.164687305784565
-0.334970971658706
-0.311993985130482
0.12292307343827
-0.383264872548852
-0.46456733111635
-0.518652848187404
-0.239924137706522
0.30574588492164
0.23190489772409
0.432075707444381
-0.152610577567849
0.223321989619693
-0.039279560859898
-0.0445617570625761
0.460934172282897
0.261046388261109
-0.154793488233778
0.17953502268959
0.454496354533269
-0.197349712549887
0.193883304285357
0.233162208730353
0.453421206917377
0.132076248674905
0.39210587208712
-0.0407924985345773
-0.15530290088827
-0.481905129289256
-0.0826946983943751
-0.137214658382326
-0.450495563294531
-0.00352985853431801
-0.391539589750399
0.133479245562738
0.422197459479822
-0.243976459833006
-0.0146348567775425
0.199459064870717
-0.0934977093590453
0.0202238576353271
0.418086427706921
0.0131413298362701
0.183639498533617
-0.138552529464866
-0.136366950529111
0.317467128285335
0.427498016274555
0.331156712198471
0.308879780527611
-0.503952585701647
0.0509672442735944
-0.399198556434728
0.503873739039322
0.11832963506749
-0.482970163309487
0.0153765553307098
-0.197849472288792
-0.452305023275076
-0.367476105701066
0.130512767870269
0.0250235901705921
-0.352431080847523
-0.21105754737446
-0.0735672639821183
0.28218164766387
0.246494316189557
0.17803255272683
0.389482366440182
-0.0565882762622499
0.121444531490897
-0.185706486685853
0.203640896751694
-0.314666414149357
-0.00842790849817558
-0.0678975251782825
-0.269361007147404
-0.387565714860513
-0.00383779243546735
-0.180713007035633
-0.505965147256197
0.101822117779996
0.0817573576836955
-0.23031150441664
-0.00913405810436239
0.388239589571652
0.507118641977499
0.0691574880925153
-0.0926491772948318
0.00805256327246312
-0.0196552183331627
-0.48621683031912
-0.145254355859212
-0.026045425439005
0.332686151006146
0.406932619980205
0.176554657318396
-0.369883132761909
-0.326488620067635
0.0195625890933476
0.02578286923631
-0.314973280709063
-0.40332549964228
-0.215790884161486
-0.403613869110926
0.20540777467117
0.404255548348529
0.469379052907002
-0.0797184623704287
-0.260687106872318
0.226350640527319
-0.184976671044869
0.218140634456225
0.283884342539813
-0.454899586597751
-0.525417658287166
-0.492295272672438
0.451082518373264
0.370449715040175
-0.0441090420311938
0.350486893663733
-0.231631898867564
-0.31035845718948
-0.21242051050832
-0.463905812560477
0.151789679537685
0.40322085256556
-0.354460725678661
-0.20716921533472
0.155243667069189
0.175581096691577
-0.340353163106626
0.35203104801912
0.416487867628176
0.221606913205519
0.385652050838907
0.0689542436241812
-0.298461933561318
-0.415739918658096
0.181248289048825
-0.450948976504621
-0.540012632716723
-0.315301977830633
-0.384614539547472
0.352718664750478
-0.424901494829753
-0.266051595131807
0.000552812869708078
-0.0210504353672135
0.428744932251856
0.328782454694068
0.302360600394139
-0.163319473134484
0.276641394999415
0.221763579699444
-0.187982631589095
0.423358769109548
0.221124141453613
-0.199067143797799
0.00267831525372824
0.230867785077487
0.165693109923762
0.0970858966648668
0.339227710790504
-0.0276425588276064
0.131128040126804
0.0237573528326021
0.222008885002823
-0.479409075784354
-0.364079460577128
-0.0479124779654552
0.219881466587771
0.278108889733823
-0.406671717812403
-0.00819418102962357
0.294263324706241
-0.354480660942542
-0.455084827006699
0.00623169055857732
0.39943456487121
-0.114388569188444
-0.174139264865256
0.233277863986459
-0.08738810308271
0.253506501395107
0.45091581068845
0.230520525049233
-0.514011232984219
-0.248846785268267
-0.0597941090358607
0.381263114968103
0.258955021659379
0.454092127644123
0.139324160445744
0.395760189503286
-0.200712357029241
-0.0789026216721438
-0.23935442975148
0.164031628303779
-0.357498880796494
-0.0481207128331025
0.0604397033643092
0.0383672252027141
-0.194254003419208
-0.106968001891425
-0.33353786404344
0.442025090838624
-0.35037736554275
-0.290391803043886
0.328435335079563
-0.402633959196298
0.289825197830589
-0.224915029990678
-0.163969587501447
-0.459231831513804
-0.0299887169814875
0.505073007341709
-0.273007052973348
-0.353831699714645
0.0800948565153571
0.308228170911407
-0.0213522546251258
0.0167873246969704
0.116893260580214
-0.225586120553278
0.239514286423186
0.317165439275176
-0.458206702139254
-0.358534035102919
-0.275070476407169
-0.0581262217714776
0.304837365361268
-0.0658328048070288
-0.232616078390221
-0.147952529135734
0.372529657842948
0.346601733410951
-0.0192379265196636
-0.421487761746221
0.151074031162031
0.427545603674331
0.127693621198231
0.322712079482467
-0.158019270556889
-0.251560107910508
-0.372160677773311
0.0470875765791387
0.0403357061907467
0.157092247208872
-0.045132838720863
-0.288568046302521
-0.409688852822138
-0.314510050757386
-0.514201525009328
-0.092265345242856
0.418435205184623
-0.518208772209285
0.329840335124373
-0.530433145125443
0.0472234332439459
-0.24410858331459
0.445393909325125
0.457121586878749
-0.461408604837777
-0.0498795209003622
-0.132258920417419
-0.0781101246947541
0.417077578646993
0.541574512813697
-0.402285410129368
0.0472892120621835
0.0841691725794351
-0.304878072245663
0.0472051287140816
0.082484358356919
-0.26955822739183
0.172366355955016
-0.413657211704948
-0.208995176968534
-0.315413755923492
-0.225468708668176
-0.164606021979624
-0.044946863676856
0.216041315192294
0.454461561878157
-0.0847065911538461
0.176269175104644
0.017877340443589
0.429984032935168
-0.14945888929903
0.320433350305841
-0.571216141989848
-0.0435298865679232
-0.0463282953768695
-0.188145068106368
-0.476771804334708
0.236710205720707
0.216834262556224
-0.52474540211791
0.440215565873467
0.279519042827233
0.038255938401481
-0.0580739258133401
-0.0282320266233255
0.488105132867231
0.177829720816926
0.45751531326559
0.182810031836598
-0.186573652264254
-0.410299076236514
-0.194805776896531
0.424198591792794
0.101319283361772
0.321379861255104
-0.166142823180713
0.488960366407028
0.0500576248511651
-0.243295304399942
-0.358286790059225
-0.535402076562665
0.121487350116883
0.343411577573688
-0.446360839319523
0.0908954603786988
-0.178502068121385
0.0156931774213527
-0.455419898519682
0.285433955599572
-0.333122405326951
0.0889231841358706
-0.0979524285343789
0.522815103494803
-0.457576307503764
-0.243287760955337
-0.0456008932534133
0.154207500130447
0.316719163479705
0.397077637464186
0.170094239474749
-0.3120661552712
-0.120304251230018
0.414397098291016
-0.400412725446243
0.255465605033046
-0.383034779148106
0.458930926460037
-0.122271222420665
0.0518292341949287
-0.452887158154975
-0.122726131278649
0.060150842154062
-0.109968375229016
0.139562997869653
0.441361205157484
-0.258687327053692
0.380080832162721
0.0429850129910384
0.388110579722709
-0.313468021924971
-0.122787983392969
0.202702332664879
-0.282501472230211
-0.0754743254444823
0.285966657135573
0.105245762262274
-0.152815634276755
0.312910752802726
-0.222973950070406
-0.0754903652164433
0.112313430232227
-0.409118676853495
0.0472872100871296
0.00502571546361211
0.403134098570445
-0.00497631956339904
0.126223057220922
0.285212610285272
-0.284990888089018
-0.0916816381730431
-0.180190005054803
-0.441401209929685
0.0675900816906963
0.186688085062644
0.36420666267965
-0.406686230275144
-0.446866278794567
-0.202730075387071
-0.463217104937317
-0.435851983498787
0.13311586148292
-0.323717434019645
0.369695431120491
0.267413540273865
-0.279494709246578
0.0494222000069836
-0.284216722352075
0.032559432939785
-0.248734246993007
-0.450857327739389
0.343548377111689
-0.44199598079287
-0.323508774780776
-0.471990775417258
-0.129374011217051
-0.30474666455189
0.418864545670141
0.452600936391621
0.18641003046816
-0.143347040287657
0.0328357828322454
-0.462412717005316
-0.250518019641808
0.0510057122205448
0.333686069007817
-0.124907836276335
-0.301208808825919
-0.0389272359916244
0.120445088895457
0.099163174185993
0.111941404949739
0.4709855581176
0.175512405529521
-0.249291164942594
0.373080832279044
-0.144405243574973
-0.200449524566104
0.214403495369551
-0.301298959698851
-0.112581015991523
-0.154099749003764
-0.334377123540082
-0.0593827463153974
-0.414707124911301
-0.00608630096636424
-0.232083325817833
0.439984267932509
-0.0559655168662885
-0.259406825274116
0.090020206555526
-0.406771037277013
-0.333501449433424
0.177447294703591
0.118907989822922
-0.0590817804921157
0.010621746878305
0.497057435168522
-0.155831873999052
0.355908293409966
0.41018518558453
-0.0834843196125436
0.310280015661008
0.337333787382282
0.190241144737877
0.000982910272057849
0.408356432030012
-0.204110443483025
0.33883768302001
-0.420470053607945
0.417808878992504
0.465268003466632
-0.388656522328947
0.166143566963863
-0.291076792630478
-0.451498889189827
-0.201181808081625
0.00301070484236778
-0.431275982478566
0.468848432998143
0.0954191232836495
-0.148354182638592
0.164396633747456
-0.217764180871559
-0.399701698650613
0.0676722120328066
0.00527048279819402
-0.149154460587692
-0.528125488507262
0.225821676766524
-0.0945652462282466
-0.0881378269280774
0.351664699546305
0.403758794869043
-0.166166075834656
-0.453741086600785
-0.0414858801743416
-0.109154622328408
0.292634907417532
0.136700976261499
0.145880531121876
0.414230937933781
-0.479418503461026
-0.217872194055607
-0.00274905646480001
-0.0235253870200855
-0.613004495680821
-0.500011729877696
0.0543898138494447
0.0293318494935733
0.253581505444734
-0.0187745892194863
0.256452753924216
0.152573333008915
-0.0864986310202752
0.1661761150582
-0.501024346047135
-0.00749916497942547
-0.085450550913972
-0.167324096002273
-0.50825678597661
0.0835011589089752
-0.366846572612238
0.0719610039084286
-0.416604485751584
-0.603001676917832
-0.140657076742621
-0.291681705518961
0.32459558604058
-0.198719984127323
0.120838483561586
-0.077404568042388
0.278902763976659
-0.106253971587839
0.0886707079624991
-0.110363887131802
-0.661503867239785
-0.490439445071107
-0.0595657288372998
0.151390410074969
0.30389907452784
-0.300443681857504
-0.190115371418579
-0.479862087453127
0.0367049985645509
-0.0592631318825343
0.350483664185852
-0.410905410393932
-0.47651851844572
-0.654119962086247
0.32631459284385
0.330697861779078
0.505081452418687
-0.306112998598741
-0.520546906342133
0.394476991151496
0.341139574317536
-0.209792688333327
0.102290605841678
-0.0675821141005565
0.458702585396739
0.409075769135379
-0.247042032004478
-0.457130854948196
-0.350824117863107
-0.34301816803556
0.418331082981819
-0.539194465857787
-0.175439946452226
0.372995042783549
-0.0503462157717637
-0.461394083888839
-0.612699086930602
0.0681395146910645
-0.198812718412183
0.308526076359102
-0.222706925368199
0.424816855262437
0.121551328335373
-0.0538779376683675
-0.57376010148686
-0.405128149983762
0.321993643944215
0.319232341376103
0.242521689311081
-0.0930829756977238
0.17539154626967
-0.300011316481842
-0.0719559603533892
0.250134573122639
0.131110943324539
0.103292869691757
-0.241638011873399
0.09514133563852
0.0310971516917238
0.252439844619417
-0.69955219593236
-0.62817366265949
-0.58084376036067
-0.0705692484016479
0.293558248002952
0.180746621702393
0.470424197509088
-0.0955835250209106
-0.10479337623513
0.138539910681825
0.0525602319279954
-0.248445076814161
-0.00795403207109197
-0.243254917412847
-0.0647216089029986
0.224476055231187
-0.241140983803169
-0.519265511789142
-0.150075017979839
0.171622356428236
0.226490131489479
-0.0119816155080472
-0.377018625791472
-0.163761532976028
0.255546435959927
0.022245375057293
-0.336523658692941
0.151474260534467
-0.591600385429794
0.35833255328086
0.0920199740618052
-0.419886269415416
-0.59258799345703
0.12023322104725
0.36208872776779
-0.26905524815544
0.487148916789931
-0.0378132818452447
-0.0345836245352809
-0.025288071137495
-0.332671032649324
0.17479945549362
-0.488482385664464
-0.562040880466812
-0.0494350307858599
-0.278877326550064
0.029020341868993
-0.254654847312489
-0.405068658797265
0.214663383604363
-0.108889813000448
-0.585800703764156
-0.213642835906363
-0.368218711854785
-0.662822757254386
-0.179711159261952
0.251728218094002
-0.0600591690744663
-0.0222165943121058
-0.18058550741361
-0.370496712347173
-0.560218889999995
-0.343579032930656
0.0479846017764859
0.544874625201858
-0.211493903477491
-0.547938325629757
-0.36331150636844
-0.481011259434488
-0.29083929355178
0.286251724894008
0.33006386950354
-0.201214494226141
-0.565202851480226
-0.41152425640572
-0.408610641171314
-0.407587070893477
-0.277886754998673
0.201637316763348
-0.378567100619486
0.315488893770354
0.456769856213861
-0.157783423189148
-0.106744690309616
-0.184366298089464
0.229962041440062
0.534254301329389
-0.495924860301731
-0.11906261556009
0.0654028220452379
0.199002003197502
-0.0972090411813276
0.291922064043457
-0.304945575003342
-0.366659400802444
-0.226304131391465
-0.193217555056608
-0.230432409294674
-0.558013750091778
-0.526765902482336
-0.178073851476184
-0.268268427912439
-0.254790641560098
0.458920028982632
0.247702229606845
-0.123055808882593
-0.104677727399692
-0.368092046521062
0.140445543068771
0.0642361702371761
-0.438786024853911
-0.147839492752676
0.0564263462499737
-0.298335019934424
0.0379945321276778
-0.258662884818558
-0.0975985474597214
0.305345528878955
-0.215395717985159
-0.144588033475689
0.0022215660863062
0.299908778393086
0.0650219296051147
0.207763736574223
0.227065610445237
0.118207073755857
0.393718457249656
-0.353354579517354
0.113449092383332
0.380839828092541
0.317271206919337
0.308189994719994
-0.155541171902358
0.0638605940385087
0.359772981736811
0.0999657111071032
0.000408366934766794
0.164157904857942
-0.0339939790607544
-0.292374201776222
0.45918201949076
0.214427203102104
-0.104027079627858
0.378464965430076
-0.198892242063312
-0.516108378060738
0.409015518024168
-0.0797425432618181
0.222981339028292
0.458190376746121
0.186572097780591
0.0407747973982625
-0.462364581301021
0.144822782419412
0.0276325489211512
-0.169738463374414
-0.582983526449646
-0.109580193282703
-0.452666661316691
-0.337902193622662
0.0572298739818135
-0.215628566089548
-0.168938747760332
0.113841796848002
0.330351435698694
-0.437813269549636
-0.224257487772846
0.347592222557339
-0.336628574012542
-0.542873488958278
0.0953544578074865
0.0533930014457459
-0.370125835148197
-0.149083660798857
-0.0630461002880666
0.316614922957851
-0.0875160211641064
0.235583056346586
-0.28953277732657
0.0208465141212062
0.0441614268373179
-0.445907106213524
-0.267340272800686
0.226072207448972
-0.304546806313794
-0.217483708275191
0.480069133522691
-0.204184146122186
-0.45717380886542
0.0334321369662285
-0.21260573642839
-0.386043309844174
-0.0332260376506424
-0.346272679884728
-0.0407460503477927
0.15018544201776
-0.536858224025258
-0.128605528907857
0.372749266223278
-0.473044476399909
0.284140251922274
0.569028189831907
-0.245788070511635
0.277072527911364
-0.0781422639193761
0.229506268449454
-0.2983504630471
0.269595892394106
-0.28183499559421
0.283949917667842
0.0109175686585387
-0.0501121076678715
-0.530185406275311
-0.183387000649284
0.12638906603601
-0.157210389717995
-0.174984505405166
-0.0745601351832957
-0.0771402549148534
0.0511268275144253
-0.392678340798732
0.0705366509051139
0.30104986260375
0.21162393355537
0.0191763259397167
-0.248520305188707
-0.153190026922817
-0.256162521458179
0.197522805045468
0.340119957655877
0.161654634384333
-0.412016804000662
0.206835620385124
-0.280553010305453
0.314822956178284
-0.0354569616518944
0.31498270574259
-0.383217008353625
-0.154237248015818
-0.179267798503976
-0.369064022727503
-0.628631941702823
-0.381172424159856
-0.368191205329552
0.3300432089866
-0.63578600715654
-0.317802477861627
0.247879563997973
-0.380735531904357
-0.51804406818683
-0.106049143863532
-0.174757446587938
0.464538728172233
-0.131484882533845
0.468822717968407
0.489734308374825
-0.554301271286372
0.12477766398096
-0.422995838553031
0.254544402128517
-0.322489609885899
-0.70101956336218
-0.594908165375787
-0.294494606027884
-0.595319910712762
-0.0219562055773082
0.0915717729210199
0.106229923898398
0.0797980030909892
-0.287371856333003
-0.165507013183932
0.343133612865644
-0.365381520114021
-0.348805378246149
-0.0264643619088767
-0.445106505034497
0.195727142657491
-0.238223475945541
0.19040397114154
0.173331100589665
-0.423277126974012
0.177993499599485
0.463850117569005
-0.176123350235811
-0.014601303447967
-0.546684616034722
-0.358683882310733
-0.377585359423919
-0.189777408903539
-0.645004275947207
-0.123245378032994
-0.511274488148139
-0.254722130668473
-0.0993734674973793
0.492314982972026
-0.326630319202725
-0.515694931491485
0.273851014245257
-0.264799658983842
-0.0954255964173782
-0.175159635708667
-0.0691801290242457
-0.0929377156238153
-0.327692069085281
0.187883763394932
0.104076811994535
-0.0377204328451929
0.154392250559467
0.462609299137394
0.229548871788306
-0.145543650690316
-0.0403857374855202
0.0380943349185404
-0.0263747658673741
0.414419223157356
0.0259819963808497
-0.443644744993302
-0.111782938830778
0.299236723832435
0.324982178399998
-0.118798826463091
0.0189731453290881
-0.154048927144222
-0.170892414640227
0.364514590767612
-0.140973834723186
-0.0943627604596653
0.0482068658965524
-0.27932053002977
-0.19496683798088
-0.392124251016652
0.289313901070778
-0.615913905878632
-0.169327870034865
-0.314522774031726
0.20699294601504
-0.204977905321783
0.505428978955582
0.399404444602663
0.452106739796651
-0.0203730630189075
0.0598085170480982
-0.273188192010168
-0.0993113691293641
0.0535441039680697
0.228776128489883
-0.440644911535543
-0.13541642436851
0.0260166076841987
-0.233467202345043
-0.729901681378488
-0.100092765111009
-0.674573157440202
-0.0535078166401168
-0.213235469043701
0.161380522035681
-0.364664012836689
0.191065740175323
-0.378522480496382
-0.164931143876458
0.497548561011495
0.267236408726601
-0.016518216990343
-0.0496715764671146
-0.110556871723993
0.11715593500435
-0.0973641754624828
-0.0380469946675819
-0.38357643790571
-0.441703682939214
-0.607931372489027
-0.225067128819706
0.240385692673961
0.14552875249521
-0.319426483981033
0.136686078977081
-0.407050385215653
0.417910889095661
0.512193350781296
0.264148533766959
-0.593380586629296
0.401690562537981
0.32244038788039
0.271001891073269
-0.302792311629201
0.0288004334473305
0.106479613768702
-0.224950032107338
-0.192177155322569
0.0603878112214462
-0.131347889522692
0.375153976605871
0.247427910602596
-0.118690339923305
0.614790786038025
0.282796685558213
0.169063448427436
0.0857182691355726
0.334601814046751
0.470621556219963
-0.385272925030918
0.160150485896271
-0.205551340851458
0.024858847056122
-0.467637693004751
0.199188461206536
0.424142951345584
-0.52982026291956
0.0389122392231346
-0.256397931354169
-0.137027687388594
-0.0577823636613465
-0.0385476749109165
-0.114486753911632
-0.253284909135798
-0.612936141361574
-0.553682192387321
-0.176578045651067
-0.412661069959658
-0.585237908630031
0.370368084694906
-0.527731412943871
-0.688844573572722
0.0928216667317313
0.209814428460574
-0.279361461159982
0.0605005738137386
-0.520518417939323
0.202069607043698
-0.493696276418918
0.311759562775422
0.062260564896804
0.423565592522246
0.401648833144934
0.396208668002194
-0.224568385477941
0.158303470741448
-0.142838695636449
0.242462089878573
0.0310816288396916
0.160993762105179
-0.0379215705836923
-0.516911239406108
-0.598717533846485
-0.448957951967186
-0.314014837268588
-0.310325714356927
-0.3105206889865
-0.324576120099825
0.421704463646626
0.326781340903351
-0.0892573292072569
-0.17891062759862
0.447619859821995
0.461583433058987
-0.526915960652944
0.232443574718144
0.241765346528663
0.366696102848573
0.378343856423329
-0.313194666178339
0.0604038983943129
0.0143565852750576
-0.166611806980394
0.19653735648767
0.306157410617529
-0.357332131081692
0.144783931799443
-0.182394772574223
0.503114249093633
-0.190798348365535
-0.041923208571415
0.354510214103969
0.0919718251547574
-0.175539338230861
-0.0923795805536368
0.504651431067046
-0.400994883812224
-0.362963409274199
-0.180770293649169
0.34786512786261
-0.347618986729319
-0.470259089666049
0.354259204068352
-0.0518736909646963
-0.303192401338822
-0.428349835637577
0.0954820278650357
0.462656335847592
0.0193853959404768
-0.137284429355315
0.42476850760537
-0.169063656089491
0.22086403901826
-0.334344820467231
0.416617119057335
-0.514584872086206
0.21998111313193
-0.0361124329671505
-0.015568114757493
0.206147957044015
0.115853506317053
0.41229011949404
-0.0719339528013687
0.112720872204838
-0.538877280824502
0.124096056378252
0.0470906857048315
-0.0736488049508099
-0.125500461610528
-0.269194491656598
0.349249133937414
-0.0675883895087822
-0.160562102355475
-0.417479751365954
-0.65479177081764
0.0338723425094048
-0.0253342044607037
0.203401963396663
-0.409441337406325
-0.169496268617433
-0.207791879407411
0.203724874817178
0.106044084727344
-0.262194421461925
-0.06413257514679
-0.121063729289003
-0.574624068546959
-0.0658847386560712
-0.281395882230474
-0.237929230826582
-0.569678287342906
-0.0131414216877825
0.222393312668738
0.139967170255391
-0.228522199795628
0.00290752441123786
0.180247685351572
-0.419662630163787
-0.19107515829953
0.139567188765061
-0.169117634998833
-0.0628157472955598
-0.0774338336277095
0.0616425952955655
0.253683847698721
-0.199975811621269
0.310465067916479
0.380228995194765
-0.369772177494609
-0.0810053805929138
0.0480040835735241
0.372860963876255
-0.303873117362672
-0.547368193723052
-0.310648609251154
0.269894002464294
-0.574694187956963
0.288894850583686
-0.667841038334287
0.119343552326192
0.000551218568269115
-0.542708094780249
-0.246800611727061
0.437862919396798
0.44060769299285
-0.255215550234444
0.28549623721512
0.263229216319228
0.121809485925167
0.0994313734126294
0.171212002800298
-0.0598340529229063
-0.0980087779966673
-0.235781470176929
0.314530449604949
-0.376187364998845
-0.429694663203661
-0.404256575928946
0.0210804971718801
-0.36021754832231
-0.0775979479781301
-0.404268684685818
-0.158241817543015
-0.599969945034647
-0.709699802817827
-0.422980281592655
-0.418313228694349
0.0672674960968309
-0.448233993803247
0.0749890957602117
-0.332253638255973
0.214788618684402
-0.563176206842607
0.225006817004873
-0.0834108427742969
-0.0169371100022474
-0.268078870691583
0.228798661983837
-0.0768829628181056
0.261183583243124
0.0883382244754704
-0.452166614422505
-0.432365624212191
-0.149072985304644
-0.16200688153464
-0.350799823435303
-0.0234349012493779
0.438279894066515
-0.3389430184907
-0.173457129724752
0.203059657928002
0.379862932428523
-0.194724432571471
0.394687783079611
-0.25338127114617
-0.318628249745783
0.350524053499596
0.48161385650152
0.308142596472247
0.199181933368932
0.267016172838065
-0.274236286025619
-0.168724631122043
-0.416403687689905
-0.295090277677588
-0.480746145217077
-0.397773394814663
0.0250158390894737
-0.630704659863074
-0.126607709896834
0.246152567294987
0.0951191015465851
-0.226496384682126
0.321885277257239
-0.135790595137679
-0.121944978427288
-0.604591425505057
0.294232566979371
0.0801389110832208
0.349600866013046
-0.0975236523333215
-0.10371748761025
-0.297476635879369
-0.52761067579367
-0.0208174713751749
-0.343257711927583
-0.0534488464052665
-0.41678131229048
-0.198265146622266
-0.439686726450767
-0.0576317608080514
-0.220984252447035
0.0569125123568868
0.0807051355792855
0.365277393887849
-0.0949135006489917
-0.165123742555139
0.467756512599044
-0.313636779609017
-0.388659596974536
0.137228405769599
0.304806256313362
0.173882888438152
0.105564168687195
-0.321057518232377
-0.595075010517186
-0.299017944247732
0.0644181615628726
-0.179929956750478
0.409859700091258
-0.384359975001593
-0.594736732420197
-0.313682177736596
-0.673024247404869
-0.43137637163616
-0.337009075026848
0.30947679470922
0.106590022323265
-0.0355794668489692
0.378472865215437
0.348656557942399
0.381327049983318
-0.269397290063102
0.367575706913361
-0.514806604787725
0.218405637047855
0.387000383701304
-0.00109898981444565
0.496039390407286
-0.492842414657394
0.361519687929374
-0.382203415670696
-0.0584123135419562
0.0227658054704013
0.305480034075124
0.184098226902051
0.0378622323388372
0.368176963802193
0.496803454720002
0.317907009798958
0.328568882412845
0.23382548943126
0.339524964189681
-0.065745516995894
-0.517149052583271
-0.335743396264672
-0.579790579872591
0.103168586546421
0.048264251813727
0.0108509670410575
-0.094691062421836
0.472806494390569
-0.363873957060923
-0.526020202978112
-0.184897809913147
0.522225420363475
0.0794108931376503
-0.629992146255804
-0.0501732247604296
0.226540611982957
-0.466528180385491
0.21068959932963
0.0756801534044036
-0.403247735352497
-0.404829380813619
0.317016479943717
-0.0415850633559811
0.0182561901770932
-0.491977641874123
-0.289375215103764
0.382706799625131
0.313076045984623
-0.0960317585533606
0.146562153257186
-0.590225491123602
-0.585787741139469
-0.663259795460664
0.150774764777055
0.395207501585751
0.11509451487187
-0.116371165122092
-0.372379564631595
0.475568352994684
-0.16240538626039
-0.280234773958272
-0.605042517642146
0.303793595238857
-0.385105488460514
-0.510066474939265
0.288660234370445
-0.352587518991408
-0.0340769968195609
-0.285555069904147
-0.390374638983394
0.103790015344007
-0.585859854103645
-0.329538381801608
0.0285676731548142
-0.112063658122185
-0.48290173194722
0.223767931313922
-0.294206014709346
0.0933011705699461
-0.101059170002841
0.134918844370506
0.350695647573101
-0.330716025021432
0.060562626856813
-0.205568004814978
-0.295609907489976
0.485779748815653
0.244660273713421
-0.291283252440979
-0.0766007429657819
-0.568451986050249
0.268582765230405
0.266264956000433
-0.434351670040825
0.191881568952299
-0.515338765804663
0.328324913296204
-0.0902963382518526
0.0913216472041671
-0.458455362419055
-0.168447178255772
-0.463877509394297
-0.124045197705346
-0.201545580179541
-0.195356758295626
-0.486833987661791
-0.495084190752805
-0.127723771676124
-0.192812694066436
0.0180204388072832
-0.552991861198226
-0.511970839424909
0.304585026854385
0.156187491031906
0.240244580092467
-0.066558550846164
0.0323485060523882
-0.419730920854138
-0.422813825847942
0.094161915357147
0.351274359117138
-0.476205842754216
0.000840558415749748
0.111405320040571
-0.473406186446565
0.390897181305293
-0.534200783899748
0.195773346706576
-0.637781076331366
-0.317445783240924
-0.0541815766596342
-0.348018633864674
0.192372321639058
-0.159147663742712
-0.616680193763587
-0.301964034646038
-0.232703406165072
0.433178434679978
0.0162368053467638
-0.621499495539088
-0.259911709859737
0.192378252577697
-0.00809941068455846
0.25644148592759
0.0726599950736331
0.265088898589004
0.322197592787067
-0.140817819189122
-0.365068018444686
-0.424033493473394
-0.191402589679107
0.275703221339327
-0.346154954724062
0.0835007543459457
-0.233871940650316
-0.589463886154142
0.275338590563218
-0.470457033622637
-0.397516236532299
-0.479372801271369
0.379846844801261
-0.564825440017329
-0.403955905399794
-0.535717803997517
-0.389640907140035
0.0877382386687292
-0.150787241080336
-0.241317102133494
-0.107266173844471
0.0908560864419048
-0.316762615479357
0.124699245267803
0.324192974543014
-0.484845572330494
-0.35163867216696
-0.288992035161069
0.297672083294339
-0.143332155132587
-0.43151409673553
-0.175132340454349
0.429551769899306
0.344663664753664
0.108218481520242
0.0766442933420663
0.406117064902091
-0.0511898094956511
-0.494469968798683
-0.613906269584456
-0.383931941154116
-0.518265452476038
-0.0450958437925728
-0.438419648281639
0.16213908762422
-0.206583205760815
-0.45714021163841
-0.33692230137346
-0.122552307446423
-0.385224402927309
-0.0526615377042188
0.0877004507221275
-0.0414415760429689
0.0656957392845807
0.318928914587056
0.112396319520607
0.251205845454134
0.000492464970290531
0.279062180387326
-0.565272837496364
-0.268153207540682
0.395472231521629
-0.367280537778704
-0.291612352788132
0.465360562675074
0.0942348077352445
-0.519773470044
-0.235491329175901
0.0893676308307139
-0.187006001865669
-0.429373913546707
0.178059158384625
0.342016734241029
-0.249626424918877
-0.526352527227271
0.00410218043959937
0.00600730542476824
0.0355158590214573
0.0232032346579567
0.00456853267578018
0.00557986663228564
0.00208998023539818
0.006928771106509
-4.37708044155769E-05
-0.00672722394837169
0.00923654776296797
0.000301060462083596
0.0185780780208877
0.00588545428332248
0.0100676334652537
0.0177018938595387
0.0416182659874306
0.00482789647872689
0.012030986120796
0.00490008410349426
0.0251760839995848
0.0256342363532552
0.00761571036993768
0.0116742266201791
-0.0019928424241715
0.0110235009187337
0.00428959690539066
0.00692647979577172
-0.0110755932074767
0.00356314685226324
0.00519525254206826
0.00748308690666059
0.0401967916677978
0.018419497336284
0.00755675315668762
0.00125400598062084
-0.0126018604542079
0.0115520175622625
0.0165822043006414
0.0170557785361211
0.00391055202556089
0.00302726535055332
-0.00595692223678685
0.0330341302995437
0.0369185440605029
0.0598340543621719
-0.011859353999629
-0.00210262093009745
-0.0210140819409119
0.0122008875851179
0.0200645318050742
-0.0167713939404751
-0.00479999904103153
0.0112068487956645
0.00254037531922763
0.0048646421471777
-0.0175238494053842
-0.0206636885029657
0.011086764807992
0.0171407736902709
0.0138826553061265
0.0185073675933272
-0.0164956146482014
0.027055909746876
0.0100531758756713
-0.00569733269054646
0.00675904556704025
0.0114846485362595
0.04606973354334
0.00079808693399815
0.0109753709793575
0.00160217553721863
0.00984670712836233
-0.00695057225220853
-0.00337450200058419
0.00601944473627607
0.0506213803521825
0.0179082587163092
0.000550517156180312
-0.00918860524453372
0.000144263551473746
0.00724789798260238
-0.000105384523653164
0.0138510235632897
0.00508148798339102
-0.00204275024005764
0.00341386680726444
0.00279384941449235
0.0116029436199198
0.00156372297126399
0.00378378191009626
0.00269419613240077
0.0567040686919221
0.0469964024392718
0.0230698352555744
0.0116331392754159
-0.000182717397366087
0.00113000910477134
-0.0238756581408856
0.00945564823526152
0.00697964677851947
0.00320867683682983
-0.00272003228996502
0.0165131553610442
0.000635759086536333
0.0143057729405928
0.00744504698885021
0.00242201203777405
0.0128509457751243
0.0378242960742662
0.00736102275992739
0.00133983287107707
0.00131493416204024
0.00603175309629692
0.0223094604293042
0.00968531347582482
-0.00205684915640148
0.00648036170744197
0.0264080954738657
0.00105777170804349
0.0588532576680719
-0.0118293272588215
0.0035648919066526
0.0264498581286682
0.0444554578851027
0.00330196667547421
-0.00113094107901585
0.0093945199367253
-0.0207502258493248
0.00628969159044702
0.00328000786503431
0.00749593795515077
0.0202454723953288
0.000199465497787114
0.02479458485003
0.0277535836010675
0.00338422842807192
0.0138343389215367
0.00498202990273029
0.0163383536733301
0.0158494117453095
0.00113686694277861
0.012038899671704
0.0417558374587083
0.0105534459143222
0.0169735047374667
0.0440879075296349
0.00977604056024959
-0.00133121688293227
0.00753255106240337
0.00535604680288005
0.00929441507806866
0.0166821619236451
0.0318276805169119
0.0131829760874674
0.000206027736434569
-0.0258479168613059
0.0125974886016335
0.0225797640923328
0.0103166090045341
0.0338429004003499
0.012184095754887
-0.000333743194980369
-0.00287787888879833
0.0112177143718551
0.0221923549097157
0.0224574968747067
0.0200768562228765
0.0324873083674096
0.0112270553043481
0.00301356671117047
0.0248419560380795
0.0012565899368272
-0.00852595688961273
0.0088639931911155
0.0094889524266863
0.0100074983179397
-0.00547817771307342
-0.0258579600225645
0.0194614273608467
0.0068367846801612
0.00716608183401475
-0.003078095021819
0.00773765879845041
0.000426166826806184
0.0134717695672177
0.0153746376756321
0.0103557922338948
0.0104464602474695
0.010387700951539
0.0295023398997978
0.0301339708775394
0.0089517754672236
0.016817028062374
0.00881977194212051
-0.0109208698698908
0.00199310121889266
0.00824599870817239
0.00608111646970209
0.0157629500682403
0.00269916041261043
0.0016079519321273
0.0141012863157231
0.00875644918371721
0.00449306115748593
0.0117969495777516
0.00767638597783199
0.0120591967746174
0.00694107766872186
-0.00150783121559888
0.00935853164971306
0.00836342533484471
0.00567487253281783
0.000570024535967316
0.00614088074471779
0.000528591026823188
-0.00132262959022502
0.00482797919760233
-0.00330635052379125
0.0103177147770909
0.00322272719223268
-0.000168730582812763
-0.0028597844017045
-0.000615123617642438
0.019540142078677
0.00388266891215051
-0.00114113655770367
0.00723218724270122
0.00307789153623581
0.00153751780284106
0.00634962357617847
0.0251903095096087
-0.00754294169192113
-0.00101292419798268
0.0144457334512488
-0.00677128049419623
0.0105111142573217
0.0164497822275594
-0.0108241756679607
0.00409149760084404
0.00108546274508664
-0.0116726921208745
0.00109933415203286
0.00530645787809574
0.0165921848551428
0.00233479362852045
0.00471030205480857
0.00873422604814773
0.0240233072872758
0.00800719752456351
0.0292144487612831
0.0233731514390074
0.00550352525162014
0.00897194427256203
0.00810290004429006
0.00100926675305237
-0.00208624228592527
0.0150872594539704
0.0117241340440636
-0.000130518437742264
0.015062949315523
0.0201370635416559
0.00429057176763478
-0.00572827594118959
0.018526124109602
0.0114287398153323
0.00787002549795151
-0.00302509969819272
0.00453206004395573
-0.00482898742872231
0.0179736142192559
0.00361355417983732
0.00518132558024828
0.0255656675090666
0.00992033487745761
0.00313450801793838
0.0101970354282804
0.00932941659944508
-0.0283230000564671
0.0111507995959907
0.0162465650403951
0.00499418549238112
0.01071422474722
0.0138836329573046
0.0102152780485308
0.0136481534003672
0.00659369819333054
0.00153622130113487
0.0325609372372026
0.00840450527305789
-0.000584834648885725
0.025635558204545
-0.00490204100052827
-0.0405582886281829
0.0119937169224724
0.000790123583051958
0.011631559018669
0.000475811628690072
0.0117018872378836
-0.00195953546368568
0.0122229760745205
-0.00478629764893781
0.00314928756449887
0.00970986705928176
0.0140261588718415
0.010075457075556
0.000216456574395363
0.0107374093516377
0.0180675772771909
0.00525561907995878
0.00649432999634204
0.00496789760241559
0.0182840293623002
0.000216807002509409
-0.00429005152011536
0.000372390746591836
0.00518833470647285
0.0107708777985688
0.00798921930829698
0.0115674641981407
0.000785035992016116
-0.00075922920742002
0.00168345768978559
0.0171941692860523
-0.000234970346193736
0.0111991070269628
0.00101526793842882
0.00519997963349535
-0.00543521847791648
0.0327925201111532
0.00891770737944576
0.0104508842659993
0.0120798666673762
0.0456029677881587
0.0175297088582014
0.0250242389814564
-0.00153677872525546
0.0352216390953801
0.0120309366514767
0.000640363210029557
0.0191458094364038
0.0387673584522879
0.0114384006802953
0.00953210090770259
-0.0154318799318249
0.00814158898455606
-0.0176256750373133
-0.0230192006950275
